{"learner":{"attributes":{"best_iteration":"1","best_score":"0.9800262529399133","scikit_learn":"{\"_estimator_type\": \"regressor\"}"},"feature_names":[],"feature_types":[],"gradient_booster":{"model":{"cats":{"enc":[],"feature_segments":[],"sorted_idx":[]},"gbtree_model_param":{"num_parallel_tree":"1","num_trees":"52"},"iteration_indptr":[0,1,2,3,4,5,6,7,8,9,10,11,12,13,14,15,16,17,18,19,20,21,22,23,24,25,26,27,28,29,30,31,32,33,34,35,36,37,38,39,40,41,42,43,44,45,46,47,48,49,50,51,52],"tree_info":[0,0,0,0,0,0,0,0,0,0,0,0,0,0,0,0,0,0,0,0,0,0,0,0,0,0,0,0,0,0,0,0,0,0,0,0,0,0,0,0,0,0,0,0,0,0,0,0,0,0,0,0],"trees":[{"base_weights":[1.7497294E-2,-2.5299485E-3,4.2651904E-1,-1.0704546E-2,9.427065E-1,5.3643304E-1,-3.1375855E-1,1.807091E-2,-2.460759E-1,1.0976374E0,2.1532218E-1,4.4030616E-1,6.56757E-2,3.6140394E-1,-5.990467E-1,2.9480683E-2,-7.5671643E-1,-2.806091E-1,6.3166074E-2,1.5215051E-2,5.837498E-2,1.5462637E-3,1.46029E-2,4.9422017E-1,-2.4860073E-2,4.7500017E-3,2.2355294E-2,-3.864669E-2,6.7597153E-3,-1.071222E-2,1.8491887E-1,-6.39897E-2,2.3914201E-2,-3.6440825E-1,2.0167087E-1,6.397361E-1,1.9958381E-1,-9.611218E-4,4.835307E-2,1.0555505E-2,-6.0507994E-2,2.3742016E-2,-1.2571216E-2,-2.1932824E-2,1.2687869E-2,2.776952E-2,-2.4202347E-2,3.7691403E-2,-2.9335355E-3,1.7230919E-3,4.5181256E-2],"categories":[],"categories_nodes":[],"categories_segments":[],"categories_sizes":[],"default_left":[0,0,0,0,0,0,0,0,0,0,0,0,0,0,0,0,0,0,0,0,0,0,0,0,0,0,0,0,0,0,0,0,0,0,0,0,0,0,0,0,0,0,0,0,0,0,0,0,0,0,0],"id":0,"left_children":[1,3,5,7,9,11,13,15,17,19,21,23,-1,25,27,29,31,33,-1,-1,-1,-1,-1,35,-1,-1,-1,-1,-1,37,39,-1,41,43,45,47,49,-1,-1,-1,-1,-1,-1,-1,-1,-1,-1,-1,-1,-1,-1],"loss_changes":[1.0002995E1,9.011962E0,4.806224E0,7.83394E0,8.905964E-1,3.1565704E0,1.7574246E0,9.1365E0,6.9221635E0,8.812237E-2,3.3417568E-2,2.5707874E0,0E0,2.6018918E-2,8.7054634E-1,6.3557005E0,6.1555624E0,5.0849085E0,0E0,0E0,0E0,0E0,0E0,1.7587872E0,0E0,0E0,0E0,0E0,0E0,6.750329E0,7.892095E0,0E0,9.8848766E-1,4.976468E0,4.877319E0,2.3550224E0,1.8289022E0,0E0,0E0,0E0,0E0,0E0,0E0,0E0,0E0,0E0,0E0,0E0,0E0,0E0,0E0],"parents":[2147483647,0,0,1,1,2,2,3,3,4,4,5,5,6,6,7,7,8,8,9,9,10,10,11,11,13,13,14,14,15,15,16,16,17,17,23,23,29,29,30,30,32,32,33,33,34,34,35,35,36,36],"right_children":[2,4,6,8,10,12,14,16,18,20,22,24,-1,26,28,30,32,34,-1,-1,-1,-1,-1,36,-1,-1,-1,-1,-1,38,40,-1,42,44,46,48,50,-1,-1,-1,-1,-1,-1,-1,-1,-1,-1,-1,-1,-1,-1],"split_conditions":[4.475198E0,1.1770534E1,4.18258E0,2.8150344E0,5.264459E-1,4.443337E0,-5.784287E-1,9.7435875E0,1.0066446E1,2.144912E-1,7.373813E-1,1.1960093E0,6.56757E-2,-2.5856853E-1,1.9563997E1,1.9485571E0,3.20992E-2,7.1958065E-1,6.3166074E-2,1.5215051E-2,5.837498E-2,1.5462637E-3,1.46029E-2,2.604054E-1,-2.4860073E-2,4.7500017E-3,2.2355294E-2,-3.864669E-2,6.7597153E-3,1.1770534E1,8.490891E0,-6.39897E-2,2.624378E-1,7.4734097E0,4.9581585E0,5.626684E0,7.336309E0,-9.611218E-4,4.835307E-2,1.0555505E-2,-6.0507994E-2,2.3742016E-2,-1.2571216E-2,-2.1932824E-2,1.2687869E-2,2.776952E-2,-2.4202347E-2,3.7691403E-2,-2.9335355E-3,1.7230919E-3,4.5181256E-2],"split_indices":[717,1678,37,703,0,1807,20,1527,1335,1,0,15,0,0,219,318,10,16,0,0,0,0,0,5,0,0,0,0,0,153,886,0,10,46,1855,1144,1126,0,0,0,0,0,0,0,0,0,0,0,0,0,0],"split_type":[0,0,0,0,0,0,0,0,0,0,0,0,0,0,0,0,0,0,0,0,0,0,0,0,0,0,0,0,0,0,0,0,0,0,0,0,0,0,0,0,0,0,0,0,0,0,0,0,0,0,0],"sum_hessian":[1.22E3,1.164E3,5.6E1,1.155E3,9E0,4.9E1,7E0,1.03E3,1.25E2,7E0,2E0,4.5E1,4E0,2E0,5E0,1.016E3,1.4E1,1.23E2,2E0,1E0,6E0,1E0,1E0,4.3E1,2E0,1E0,1E0,4E0,1E0,8.08E2,2.08E2,8E0,6E0,1.05E2,1.8E1,2.8E1,1.5E1,8.02E2,6E0,2.05E2,3E0,2E0,4E0,9.4E1,1.1E1,1.2E1,6E0,2.4E1,4E0,1.3E1,2E0],"tree_param":{"num_deleted":"0","num_feature":"2072","num_nodes":"51","size_leaf_vector":"1"}},{"base_weights":[-1.2405074E-2,-1.9696418E-2,7.165479E-1,-2.638626E-2,7.7769536E-1,-7.015499E-2,8.8090396E-1,-4.3769117E-2,2.7004886E-1,9.9149084E-1,2.0912945E-1,-5.2461745E-3,-1.5449525E-5,1.0410142E-2,4.6625745E-2,-1.3468088E-2,-2.3170456E-1,-1.7063744E-1,5.795147E-1,1.4834679E-2,5.289207E-2,1.2936895E-2,1.5076041E-3,-3.605993E-3,-7.996697E-1,-7.7890736E-1,-1.5468602E-1,4.98531E-1,-3.377841E-1,6.7902905E-1,-8.4100026E-1,8.292186E-5,-6.297936E-2,1.621051E-2,-4.656571E-2,-5.415621E-2,3.0374846E-3,-2.1142964E-3,-2.6284495E-2,4.47642E-3,3.4032512E-2,-2.2522276E-2,1.5498454E-2,4.1795805E-2,2.9119253E-4,-1.27586005E-2,-5.031642E-2],"categories":[],"categories_nodes":[],"categories_segments":[],"categories_sizes":[],"default_left":[0,0,0,0,0,0,0,0,0,0,0,0,0,0,0,0,0,0,0,0,0,0,0,0,0,0,0,0,0,0,0,0,0,0,0,0,0,0,0,0,0,0,0,0,0,0,0],"id":1,"left_children":[1,3,5,7,9,11,13,15,17,19,21,-1,-1,-1,-1,23,25,27,29,-1,-1,-1,-1,31,33,35,37,39,41,43,45,-1,-1,-1,-1,-1,-1,-1,-1,-1,-1,-1,-1,-1,-1,-1,-1],"loss_changes":[6.4400053E0,6.4111614E0,1.6133928E0,6.1386056E0,1.0082183E0,7.252902E-3,1.5303421E-1,6.3976517E0,9.0997925E0,8.846283E-3,2.7713671E-2,0E0,0E0,0E0,0E0,7.5103493E0,6.454095E0,3.300176E0,6.0841656E0,0E0,0E0,0E0,0E0,6.336409E0,2.077373E0,4.919118E0,5.7324915E0,3.8598585E-1,1.8180902E0,3.9029675E0,3.3774853E-2,0E0,0E0,0E0,0E0,0E0,0E0,0E0,0E0,0E0,0E0,0E0,0E0,0E0,0E0,0E0,0E0],"parents":[2147483647,0,0,1,1,2,2,3,3,4,4,5,5,6,6,7,7,8,8,9,9,10,10,15,15,16,16,17,17,18,18,23,23,24,24,25,25,26,26,27,27,28,28,29,29,30,30],"right_children":[2,4,6,8,10,12,14,16,18,20,22,-1,-1,-1,-1,24,26,28,30,-1,-1,-1,-1,32,34,36,38,40,42,44,46,-1,-1,-1,-1,-1,-1,-1,-1,-1,-1,-1,-1,-1,-1,-1,-1],"split_conditions":[9.449556E0,1.1770534E1,-2.8870448E-1,1.1645396E0,-6.086542E-1,-4.2642483E-1,-1.2748641E0,9.848598E-1,6.592264E-1,2.144912E-1,8.994303E-1,-5.2461745E-3,-1.5449525E-5,1.0410142E-2,4.6625745E-2,9.449556E0,-9.468398E-1,1.1663247E0,2.2597935E1,1.4834679E-2,5.289207E-2,1.2936895E-2,1.5076041E-3,1.0066446E1,-6.642833E-1,1.8298749E0,5.87508E-1,-1.464311E0,4.0796666E0,4.5747757E0,-1.7617714E-1,8.292186E-5,-6.297936E-2,1.621051E-2,-4.656571E-2,-5.415621E-2,3.0374846E-3,-2.1142964E-3,-2.6284495E-2,4.47642E-3,3.4032512E-2,-2.2522276E-2,1.5498454E-2,4.1795805E-2,2.9119253E-4,-1.27586005E-2,-5.031642E-2],"split_indices":[783,1678,20,20,2,0,0,21,104,1,1,0,0,0,0,636,10,20,441,0,0,0,0,281,9,25,1,10,964,1659,0,0,0,0,0,0,0,0,0,0,0,0,0,0,0,0,0],"split_type":[0,0,0,0,0,0,0,0,0,0,0,0,0,0,0,0,0,0,0,0,0,0,0,0,0,0,0,0,0,0,0,0,0,0,0,0,0,0,0,0,0,0,0,0,0,0,0],"sum_hessian":[1.208E3,1.197E3,1.1E1,1.188E3,9E0,2E0,9E0,1.123E3,6.5E1,6E0,3E0,1E0,1E0,1E0,8E0,9.68E2,1.55E2,2.7E1,3.8E1,1E0,5E0,2E0,1E0,9.57E2,1.1E1,1.8E1,1.37E2,5E0,2.2E1,3.6E1,2E0,9.54E2,3E0,1E0,1E1,1.3E1,5E0,1.06E2,3.1E1,2E0,3E0,1.9E1,3E0,2.9E1,7E0,1E0,1E0],"tree_param":{"num_deleted":"0","num_feature":"2072","num_nodes":"47","size_leaf_vector":"1"}},{"base_weights":[2.3740033E-2,1.0832997E-2,6.0562927E-1,3.5780333E-2,-2.5455582E-1,7.367437E-1,1.4449821E-1,4.427572E-2,-8.725563E-1,-2.961239E-1,6.0102146E-2,7.612705E-4,8.6657816E-1,-1.0309279E-1,1.7798234E-2,3.7593354E-2,1.0488971E0,3.6430765E-2,-1.1314216E0,-3.7565818E-1,4.49297E-1,1.1184557E-2,-1.670071E-2,-1.541791E-2,9.5928407E-1,-1.1389685E-2,6.7752483E-3,2.5873745E-2,6.1564475E-1,1.0283447E-2,6.725273E-2,-7.029618E-2,-2.1840656E-2,-4.2122895E-1,3.547103E-2,6.6117346E-1,-2.6547256E-1,1.0151044E0,3.0494928E-3,2.3650525E-3,-1.7205363E-2,4.10288E-2,-1.0212521E-2,-2.4032453E-2,2.3052527E-2,3.983784E-3,3.6643118E-2,-1.8807435E-2,-1.1030078E-3,5.381505E-2,3.9587854E-3],"categories":[],"categories_nodes":[],"categories_segments":[],"categories_sizes":[],"default_left":[0,0,0,0,0,0,0,0,0,0,0,0,0,0,0,0,0,0,0,0,0,0,0,0,0,0,0,0,0,0,0,0,0,0,0,0,0,0,0,0,0,0,0,0,0,0,0,0,0,0,0],"id":2,"left_children":[1,3,5,7,9,11,13,15,17,19,-1,21,23,25,-1,27,29,-1,31,33,35,-1,-1,-1,37,-1,-1,39,41,-1,-1,-1,-1,43,-1,45,47,49,-1,-1,-1,-1,-1,-1,-1,-1,-1,-1,-1,-1,-1],"loss_changes":[8.998487E0,7.781861E0,1.4655266E0,8.326338E0,6.4713035E0,1.9104576E0,4.0319774E-1,7.1101775E0,4.9692464E0,6.038146E0,0E0,3.7324178E-1,2.147503E0,1.498806E-1,0E0,7.1583047E0,1.4714618E0,0E0,1.1019173E0,4.749138E0,1.6899519E0,0E0,0E0,0E0,7.403784E-1,0E0,0E0,8.253153E0,3.6960678E0,0E0,0E0,0E0,0E0,4.78259E0,0E0,2.7510405E-1,7.252197E-2,7.739172E-1,0E0,0E0,0E0,0E0,0E0,0E0,0E0,0E0,0E0,0E0,0E0,0E0,0E0],"parents":[2147483647,0,0,1,1,2,2,3,3,4,4,5,5,6,6,7,7,8,8,9,9,11,11,12,12,13,13,15,15,16,16,18,18,19,19,20,20,24,24,27,27,28,28,33,33,35,35,36,36,37,37],"right_children":[2,4,6,8,10,12,14,16,18,20,-1,22,24,26,-1,28,30,-1,32,34,36,-1,-1,-1,38,-1,-1,40,42,-1,-1,-1,-1,44,-1,46,48,50,-1,-1,-1,-1,-1,-1,-1,-1,-1,-1,-1,-1,-1],"split_conditions":[6.853375E0,1.1675164E0,1.7341557E-1,1.0820209E1,6.4528203E0,-7.400931E-1,4.7089237E-1,1.4774495E1,-2.88186E-1,3.6531897E0,6.0102146E-2,-1.7445887E0,-7.0588535E-1,4.9112433E-1,1.7798234E-2,1.3537031E0,-1.3028063E0,3.6430765E-2,-1.1453104E0,1.1770534E1,2.594386E0,1.1184557E-2,-1.670071E-2,-1.541791E-2,1.1195607E0,-1.1389685E-2,6.7752483E-3,3.8502913E0,9.005006E-1,1.0283447E-2,6.725273E-2,-7.029618E-2,-2.1840656E-2,5.39426E0,3.547103E-2,1.1884545E0,5.85796E-1,5.046337E0,3.0494928E-3,2.3650525E-3,-1.7205363E-2,4.10288E-2,-1.0212521E-2,-2.4032453E-2,2.3052527E-2,3.983784E-3,3.6643118E-2,-1.8807435E-2,-1.1030078E-3,5.381505E-2,3.9587854E-3],"split_indices":[1133,1,16,1172,752,18,15,89,3,143,0,0,5,0,0,18,0,0,15,1678,6,0,0,0,1,0,0,275,21,0,0,0,0,727,0,1,0,221,0,0,0,0,0,0,0,0,0,0,0,0,0],"split_type":[0,0,0,0,0,0,0,0,0,0,0,0,0,0,0,0,0,0,0,0,0,0,0,0,0,0,0,0,0,0,0,0,0,0,0,0,0,0,0,0,0,0,0,0,0,0,0,0,0,0,0],"sum_hessian":[1.198E3,1.173E3,2.5E1,1.073E3,1E2,1.9E1,6E0,1.064E3,9E0,9.8E1,2E0,3E0,1.6E1,3E0,3E0,1.058E3,6E0,1E0,8E0,8.9E1,9E0,2E0,1E0,1E0,1.5E1,2E0,1E0,1.038E3,2E1,2E0,4E0,5E0,3E0,8.6E1,3E0,7E0,2E0,1.4E1,1E0,9.82E2,5.6E1,1.6E1,4E0,8.1E1,5E0,1E0,6E0,1E0,1E0,1.3E1,1E0],"tree_param":{"num_deleted":"0","num_feature":"2072","num_nodes":"51","size_leaf_vector":"1"}},{"base_weights":[-6.2583E-3,7.298551E-2,-7.283741E-2,1.2285301E-1,-1.509165E-1,-9.107749E-2,5.5691886E-1,7.8840005E-1,9.245981E-2,-1.1351901E0,-1.1003639E-1,-1.0568938E-1,6.970306E-1,9.7600144E-1,-5.137603E-1,8.501487E-1,-9.620595E-3,-4.3503173E-2,1.9420095E-1,-1.3709903E-2,-6.653941E-2,1.2385795E-1,-3.0365646E-1,-8.16934E-2,-5.453214E-1,7.944618E-1,-9.367824E-3,4.3033363E-4,1.0497544E0,-3.4029502E-2,-1.20067276E-1,5.984628E-1,1.2957243E0,-1.5281521E-2,-1.0846479E0,1.0303051E0,1.5555343E-1,-2.4831924E-1,3.9495742E-1,-1.0081823E0,-1.9681284E-1,-6.970119E-2,-9.7389627E-1,-7.1741074E-1,3.4864902E-1,-5.5255652E-3,8.960103E-1,1.47309145E-2,1.1602683E0,-6.1358215E-4,-8.391464E-3,3.239479E-2,-1.1041403E-3,7.832499E-2,-1.4538289E-3,4.8575885E-4,-4.610525E-2,-6.773873E-2,-1.0354519E-4,6.43229E-2,-4.0793973E-3,5.30375E-3,3.666476E-2,-2.4588067E-2,8.915702E-3,-1.9167203E-2,2.541089E-2,-5.926746E-2,-1.8842157E-2,-1.2092734E-2,4.912988E-2,-4.097083E-3,3.7295725E-2,-6.0231414E-2,1.6030682E-2,-4.1288614E-2,6.9600823E-3,-4.202692E-3,2.9300695E-2,5.0086375E-2,-1.386118E-3,1.5089095E-2,6.0796943E-2],"categories":[],"categories_nodes":[],"categories_segments":[],"categories_sizes":[],"default_left":[0,0,0,0,0,0,0,0,0,0,0,0,0,0,0,0,0,0,0,0,0,0,0,0,0,0,0,0,0,0,0,0,0,0,0,0,0,0,0,0,0,0,0,0,0,0,0,0,0,0,0,0,0,0,0,0,0,0,0,0,0,0,0,0,0,0,0,0,0,0,0,0,0,0,0,0,0,0,0,0,0,0,0],"id":3,"left_children":[1,3,5,7,9,11,13,15,17,19,21,23,25,27,29,31,-1,33,35,-1,-1,37,39,41,43,45,-1,-1,47,-1,49,51,53,55,57,59,61,63,65,67,69,71,73,75,77,-1,79,-1,81,-1,-1,-1,-1,-1,-1,-1,-1,-1,-1,-1,-1,-1,-1,-1,-1,-1,-1,-1,-1,-1,-1,-1,-1,-1,-1,-1,-1,-1,-1,-1,-1,-1,-1],"loss_changes":[6.5053263E0,6.304681E0,7.7468805E0,9.25226E0,4.0195208E0,7.5819354E0,9.026789E0,1.3748541E0,6.1226473E0,3.0873394E-1,4.566274E0,6.717614E0,1.1828504E0,9.898386E-1,3.1236148E-1,1.3553133E0,0E0,5.5661616E0,8.015012E0,0E0,0E0,4.7393394E0,3.9416509E0,6.448109E0,5.326936E0,1.1099043E0,0E0,0E0,7.4305344E-1,0E0,1.338606E-2,4.4376278E-1,2.1978903E0,4.225131E0,1.4593582E0,3.2379189E0,6.868555E0,2.1648977E0,2.5748916E0,3.3627653E-1,2.8406634E0,6.071201E0,2.7756987E0,2.714017E0,6.655076E-1,0E0,1.0043144E0,0E0,1.5876675E-1,0E0,0E0,0E0,0E0,0E0,0E0,0E0,0E0,0E0,0E0,0E0,0E0,0E0,0E0,0E0,0E0,0E0,0E0,0E0,0E0,0E0,0E0,0E0,0E0,0E0,0E0,0E0,0E0,0E0,0E0,0E0,0E0,0E0,0E0],"parents":[2147483647,0,0,1,1,2,2,3,3,4,4,5,5,6,6,7,7,8,8,9,9,10,10,11,11,12,12,13,13,14,14,15,15,17,17,18,18,21,21,22,22,23,23,24,24,25,25,28,28,30,30,31,31,32,32,33,33,34,34,35,35,36,36,37,37,38,38,39,39,40,40,41,41,42,42,43,43,44,44,46,46,48,48],"right_children":[2,4,6,8,10,12,14,16,18,20,22,24,26,28,30,32,-1,34,36,-1,-1,38,40,42,44,46,-1,-1,48,-1,50,52,54,56,58,60,62,64,66,68,70,72,74,76,78,-1,80,-1,82,-1,-1,-1,-1,-1,-1,-1,-1,-1,-1,-1,-1,-1,-1,-1,-1,-1,-1,-1,-1,-1,-1,-1,-1,-1,-1,-1,-1,-1,-1,-1,-1,-1,-1],"split_conditions":[-1.6359828E-2,4.096663E-1,6.965352E0,-1.0242985E0,-1.0670604E0,9.180293E0,1.4684723E-1,-5.1851172E-2,-1.4140445E-1,5.062652E-1,-1.0448497E-1,4.1047335E0,-1.7399321E-1,-2.351318E-1,5.75595E-1,6.9092846E-1,-9.620595E-3,5.34034E0,-4.0260386E-1,-1.3709903E-2,-6.653941E-2,-6.466103E-1,2.083341E-1,9.7435875E0,3.1944294E0,-4.962305E-1,-9.367824E-3,4.3033363E-4,-3.6309874E-1,-3.4029502E-2,-5.5264585E-2,1.2189776E0,1.7492855E1,7.4734097E0,-4.6389827E-1,2.604054E-1,4.1047335E0,-4.1826335E-1,-8.494294E-1,3.9153273E0,7.771744E0,3.5073893E0,6.9089884E-1,9.449556E0,-2.9348403E-1,-5.5255652E-3,1.5771058E0,1.47309145E-2,-1.1227897E0,-6.1358215E-4,-8.391464E-3,3.239479E-2,-1.1041403E-3,7.832499E-2,-1.4538289E-3,4.8575885E-4,-4.610525E-2,-6.773873E-2,-1.0354519E-4,6.43229E-2,-4.0793973E-3,5.30375E-3,3.666476E-2,-2.4588067E-2,8.915702E-3,-1.9167203E-2,2.541089E-2,-5.926746E-2,-1.8842157E-2,-1.2092734E-2,4.912988E-2,-4.097083E-3,3.7295725E-2,-6.0231414E-2,1.6030682E-2,-4.1288614E-2,6.9600823E-3,-4.202692E-3,2.9300695E-2,5.0086375E-2,-1.386118E-3,1.5089095E-2,6.0796943E-2],"split_indices":[21,7,827,1,10,1828,1,21,17,1,19,334,10,19,1081,674,0,53,1,0,0,21,2,1527,777,4,0,0,2,0,0,2,73,897,2,5,231,16,20,691,61,7,1,191,0,0,21,0,1,0,0,0,0,0,0,0,0,0,0,0,0,0,0,0,0,0,0,0,0,0,0,0,0,0,0,0,0,0,0,0,0,0,0],"split_type":[0,0,0,0,0,0,0,0,0,0,0,0,0,0,0,0,0,0,0,0,0,0,0,0,0,0,0,0,0,0,0,0,0,0,0,0,0,0,0,0,0,0,0,0,0,0,0,0,0,0,0,0,0,0,0,0,0,0,0,0,0,0,0,0,0,0,0,0,0,0,0,0,0,0,0,0,0,0,0,0,0,0,0],"sum_hessian":[1.231E3,5.62E2,6.69E2,4.6E2,1.02E2,6.51E2,1.8E1,1.9E1,4.41E2,3E0,9.9E1,6.4E2,1.1E1,1.3E1,5E0,1.8E1,1E0,1.89E2,2.52E2,1E0,2E0,4.5E1,5.4E1,6.08E2,3.2E1,1E1,1E0,1E0,1.2E1,3E0,2E0,1.3E1,5E0,1.85E2,4E0,1E1,2.42E2,1.9E1,2.6E1,6E0,4.8E1,6.01E2,7E0,2.7E1,5E0,1E0,9E0,2E0,1E1,1E0,1E0,1.2E1,1E0,4E0,1E0,1.81E2,4E0,3E0,1E0,8E0,2E0,2.24E2,1.8E1,1.2E1,7E0,3E0,2.3E1,4E0,2E0,4.7E1,1E0,5.93E2,8E0,6E0,1E0,2.4E1,3E0,2E0,3E0,8E0,1E0,1E0,9E0],"tree_param":{"num_deleted":"0","num_feature":"2072","num_nodes":"83","size_leaf_vector":"1"}},{"base_weights":[9.711325E-3,-1.5403972E-2,3.5691908E-1,-2.7987784E-2,5.015689E-1,4.2906544E-1,-5.7860054E-2,-1.0876765E-2,-4.319464E-1,7.374401E-1,-1.5080512E-1,-5.693589E-2,5.632422E-1,-2.072246E-2,6.7904705E-1,-5.1702875E-1,4.6577476E-2,8.6713874E-1,-4.317087E-2,-3.2453265E-2,1.2345918E-1,5.2010494E-1,-3.1888276E-1,6.789483E-1,-3.0264235E-1,-3.6685415E-2,3.9402714E-1,8.830191E-1,-1.0263097E-1,-2.7361014E-1,-9.5316947E-1,4.0528327E-1,1.0491272E0,2.6717854E-1,-1.487844E-2,1.3518333E-3,3.0665565E-2,-4.2978892E-1,2.5299776E-2,7.489315E-1,-4.0057135E-1,-4.8678238E-2,-3.548449E-2,-1.4549445E-3,-4.9257863E-2,2.5798356E-2,-2.6917925E-2,-7.783413E-4,4.8306193E-2,-1.4488871E-2,1.1470211E-2,-1.971926E-2,4.5228425E-2,3.4892322E-3,-5.1561113E-2,6.2718824E-3,3.6829915E-2,5.4943133E-2,1.1307538E-2,-2.5690913E-3,1.7983204E-2,1.5816117E-2,-3.053217E-2,8.240874E-2,3.301198E-2,-5.3874254E-3,-2.3113139E-2,5.0026714E-3,-1.1538053E-2],"categories":[],"categories_nodes":[],"categories_segments":[],"categories_sizes":[],"default_left":[0,0,0,0,0,0,0,0,0,0,0,0,0,0,0,0,0,0,0,0,0,0,0,0,0,0,0,0,0,0,0,0,0,0,0,0,0,0,0,0,0,0,0,0,0,0,0,0,0,0,0,0,0,0,0,0,0,0,0,0,0,0,0,0,0,0,0,0,0],"id":4,"left_children":[1,3,5,7,9,11,-1,13,15,17,19,21,23,25,27,29,-1,31,-1,-1,33,35,37,39,41,43,45,47,49,51,53,55,57,59,-1,-1,-1,61,-1,63,65,67,-1,-1,-1,-1,-1,-1,-1,-1,-1,-1,-1,-1,-1,-1,-1,-1,-1,-1,-1,-1,-1,-1,-1,-1,-1,-1,-1],"loss_changes":[1.0600573E1,7.3912635E0,9.45405E0,7.6539564E0,4.2658668E0,5.1836643E0,0E0,7.241589E0,5.7020636E0,4.901285E0,1.173373E0,2.8866253E0,6.417141E0,6.9661155E0,2.4822326E0,4.304287E0,0E0,1.1718006E0,0E0,0E0,4.4256324E-1,2.5916076E-1,1.406764E0,4.455158E0,7.92457E-1,7.253288E0,4.7118855E0,9.1116047E-1,3.1503302E-1,4.4832907E0,1.2696304E0,5.5662215E-1,2.83597E-1,1.6579133E-1,0E0,0E0,0E0,1.8124111E0,0E0,3.059103E0,2.2450507E-2,1.8557733E-1,0E0,0E0,0E0,0E0,0E0,0E0,0E0,0E0,0E0,0E0,0E0,0E0,0E0,0E0,0E0,0E0,0E0,0E0,0E0,0E0,0E0,0E0,0E0,0E0,0E0,0E0,0E0],"parents":[2147483647,0,0,1,1,2,2,3,3,4,4,5,5,7,7,8,8,9,9,10,10,11,11,12,12,13,13,14,14,15,15,17,17,20,20,21,21,22,22,23,23,24,24,25,25,26,26,27,27,28,28,29,29,30,30,31,31,32,32,33,33,37,37,39,39,40,40,41,41],"right_children":[2,4,6,8,10,12,-1,14,16,18,20,22,24,26,28,30,-1,32,-1,-1,34,36,38,40,42,44,46,48,50,52,54,56,58,60,-1,-1,-1,62,-1,64,66,68,-1,-1,-1,-1,-1,-1,-1,-1,-1,-1,-1,-1,-1,-1,-1,-1,-1,-1,-1,-1,-1,-1,-1,-1,-1,-1,-1],"split_conditions":[3.748202E0,6.853375E0,8.3648586E-1,5.1391354E0,1.7341557E-1,6.9092846E-1,-5.7860054E-2,8.703447E0,1.2349089E1,1.302135E1,4.920117E-1,1.6988455E0,2.045322E0,5.626684E0,3.0054417E0,1.9270669E-1,4.6577476E-2,-9.7296995E-1,-4.317087E-2,-3.2453265E-2,3.471794E-1,-7.8197914E-1,2.0393077E-1,6.3628993E0,9.12715E-1,1.0820209E1,1.2349089E1,-2.9762405E-1,6.4406085E-1,6.746492E0,-2.0962238E-1,2.3286464E0,8.895057E-1,-2.4171819E-1,-1.487844E-2,1.3518333E-3,3.0665565E-2,-9.247078E-1,2.5299776E-2,-1.1670916E0,-6.929715E-1,-1.3992652E0,-3.548449E-2,-1.4549445E-3,-4.9257863E-2,2.5798356E-2,-2.6917925E-2,-7.783413E-4,4.8306193E-2,-1.4488871E-2,1.1470211E-2,-1.971926E-2,4.5228425E-2,3.4892322E-3,-5.1561113E-2,6.2718824E-3,3.6829915E-2,5.4943133E-2,1.1307538E-2,-2.5690913E-3,1.7983204E-2,1.5816117E-2,-3.053217E-2,8.240874E-2,3.301198E-2,-5.3874254E-3,-2.3113139E-2,5.0026714E-3,-1.1538053E-2],"split_indices":[1481,1133,1,772,16,674,0,57,249,133,16,402,2,1717,138,15,0,15,0,0,1,0,0,1840,0,1172,1180,21,0,1192,0,1762,0,1,0,0,0,0,0,22,0,1,0,0,0,0,0,0,0,0,0,0,0,0,0,0,0,0,0,0,0,0,0,0,0,0,0,0,0],"split_type":[0,0,0,0,0,0,0,0,0,0,0,0,0,0,0,0,0,0,0,0,0,0,0,0,0,0,0,0,0,0,0,0,0,0,0,0,0,0,0,0,0,0,0,0,0,0,0,0,0,0,0,0,0,0,0,0,0,0,0,0,0,0,0,0,0,0,0,0,0],"sum_hessian":[1.214E3,1.133E3,8.1E1,1.107E3,2.6E1,7.8E1,3E0,1.063E3,4.4E1,1.9E1,7E0,1.7E1,6.1E1,1.049E3,1.4E1,4.2E1,2E0,1.8E1,1E0,2E0,5E0,5E0,1.2E1,5.4E1,7E0,1.011E3,3.8E1,1.1E1,3E0,2.8E1,1.4E1,6E0,1.2E1,4E0,1E0,1E0,4E0,1.1E1,1E0,5.1E1,3E0,5E0,2E0,1.004E3,7E0,3.4E1,4E0,1E0,1E1,2E0,1E0,2.6E1,2E0,1E0,1.3E1,4E0,2E0,1.1E1,1E0,1E0,3E0,2E0,9E0,3E0,4.8E1,1E0,2E0,3E0,2E0],"tree_param":{"num_deleted":"0","num_feature":"2072","num_nodes":"69","size_leaf_vector":"1"}},{"base_weights":[-2.5495149E-3,-1.9261824E-2,3.2867524E-1,-1.1520504E-2,-8.4723955E-1,4.3505284E-1,-7.0123196E-1,5.521475E-3,-3.8855723E-1,-1.071497E0,5.39728E-3,5.7127285E-1,-3.2465738E-1,-1.1738569E-2,-5.4471772E-2,-1.71771E-3,8.1575805E-1,-4.5954922E-1,4.5024894E-2,-6.49225E-2,-1.847744E-1,1.656484E-1,9.215964E-1,2.2419382E-2,-4.7733647E-1,-1.0162442E-2,6.6614205E-1,1.0642233E0,1.7700434E-1,-2.4177599E-1,-8.935956E-1,-1.1346328E-2,-2.5117516E-3,6.033385E-1,-2.1744691E-1,9.801744E-1,-1.2106895E-2,-3.5498288E-2,7.3517165E-3,1.4557621E-2,-1.4618946E-3,3.87174E-2,1.0102004E-2,1.44289015E-2,5.7270057E-2,1.1319002E-2,7.2193146E-4,3.825436E-3,-3.0231405E-2,-5.0439604E-2,-2.9073397E-3,-2.4867058E-4,4.1603856E-2,-1.737544E-2,1.6596444E-2,5.8236998E-2,2.3272542E-2],"categories":[],"categories_nodes":[],"categories_segments":[],"categories_sizes":[],"default_left":[0,0,0,0,0,0,0,0,0,0,0,0,0,0,0,0,0,0,0,0,0,0,0,0,0,0,0,0,0,0,0,0,0,0,0,0,0,0,0,0,0,0,0,0,0,0,0,0,0,0,0,0,0,0,0,0,0],"id":5,"left_children":[1,3,5,7,9,11,13,15,17,19,-1,21,23,-1,-1,25,27,29,-1,-1,31,33,35,-1,37,39,41,43,45,47,49,-1,-1,51,53,55,-1,-1,-1,-1,-1,-1,-1,-1,-1,-1,-1,-1,-1,-1,-1,-1,-1,-1,-1,-1,-1],"loss_changes":[6.914673E0,7.6113033E0,6.8786163E0,7.577753E0,2.4719434E0,5.8772917E0,8.307216E-1,6.623497E0,5.080965E0,1.5712786E0,0E0,6.5260296E0,1.2762821E0,0E0,0E0,6.323454E0,1.3987088E0,4.4156103E0,0E0,0E0,5.613722E-3,3.9877658E0,1.9415703E0,0E0,1.2663648E0,6.371236E0,5.4661083E-1,1.10219E-1,2.883856E-2,3.9729288E0,1.4811945E0,0E0,0E0,1.5347266E0,1.0442351E0,1.737875E0,0E0,0E0,0E0,0E0,0E0,0E0,0E0,0E0,0E0,0E0,0E0,0E0,0E0,0E0,0E0,0E0,0E0,0E0,0E0,0E0,0E0],"parents":[2147483647,0,0,1,1,2,2,3,3,4,4,5,5,6,6,7,7,8,8,9,9,11,11,12,12,15,15,16,16,17,17,20,20,21,21,22,22,24,24,25,25,26,26,27,27,28,28,29,29,30,30,33,33,34,34,35,35],"right_children":[2,4,6,8,10,12,14,16,18,20,-1,22,24,-1,-1,26,28,30,-1,-1,32,34,36,-1,38,40,42,44,46,48,50,-1,-1,52,54,56,-1,-1,-1,-1,-1,-1,-1,-1,-1,-1,-1,-1,-1,-1,-1,-1,-1,-1,-1,-1,-1],"split_conditions":[4.475198E0,1.0820209E1,4.7555637E0,4.7555637E0,2.84235E-1,4.18258E0,-7.6401524E-2,1.1770534E1,1.2349089E1,1.2266961E0,5.39728E-3,4.9471626E-1,-1.1209489E0,-1.1738569E-2,-5.4471772E-2,9.7435875E0,-5.5869573E-1,2.9731705E0,4.5024894E-2,-6.49225E-2,4.0822887E-1,1.8419391E-1,9.449556E0,2.2419382E-2,4.321977E0,-1.1730504E0,2.3907733E-1,2.144912E-1,8.994303E-1,1.784142E-1,6.1934624E0,-1.1346328E-2,-2.5117516E-3,-7.529264E-1,2.660629E0,2.4579024E0,-1.2106895E-2,-3.5498288E-2,7.3517165E-3,1.4557621E-2,-1.4618946E-3,3.87174E-2,1.0102004E-2,1.44289015E-2,5.7270057E-2,1.1319002E-2,7.2193146E-4,3.825436E-3,-3.0231405E-2,-5.0439604E-2,-2.9073397E-3,-2.4867058E-4,4.1603856E-2,-1.737544E-2,1.6596444E-2,5.8236998E-2,2.3272542E-2],"split_indices":[717,462,768,1852,1,37,0,1678,249,5,0,1,2,0,0,424,2,1041,0,0,0,1,938,0,1689,22,0,1,1,15,56,0,0,20,1260,1952,0,0,0,0,0,0,0,0,0,0,0,0,0,0,0,0,0,0,0,0,0],"split_type":[0,0,0,0,0,0,0,0,0,0,0,0,0,0,0,0,0,0,0,0,0,0,0,0,0,0,0,0,0,0,0,0,0,0,0,0,0,0,0,0,0,0,0,0,0,0,0,0,0,0,0,0,0,0,0,0,0],"sum_hessian":[1.247E3,1.188E3,5.9E1,1.178E3,1E1,5.4E1,5E0,1.128E3,5E1,8E0,2E0,4.6E1,8E0,3E0,2E0,1.119E3,9E0,4.8E1,2E0,6E0,2E0,2.2E1,2.4E1,1E0,7E0,1.106E3,1.3E1,6E0,3E0,3.3E1,1.5E1,1E0,1E0,1E1,1.2E1,2.3E1,1E0,5E0,2E0,6.5E1,1.041E3,1E1,3E0,1E0,5E0,2E0,1E0,1.8E1,1.5E1,1.3E1,2E0,3E0,7E0,1E1,2E0,1.6E1,7E0],"tree_param":{"num_deleted":"0","num_feature":"2072","num_nodes":"57","size_leaf_vector":"1"}},{"base_weights":[-2.4153157E-3,-3.482849E-2,1.8716072E-1,-4.5394123E-2,5.068167E-1,2.3943034E-1,-9.5349777E-1,-4.9926367E-2,5.6027163E-2,2.1174213E-1,1.1600337E0,2.737875E-1,-6.3171394E-2,-1.4662997E-1,-5.9900768E-2,-4.5373894E-2,-5.9688646E-2,3.988101E-2,4.4294648E-2,-3.154278E-5,6.961464E-2,3.6148754E-1,-3.5732636E-1,-1.3939572E-2,2.9423237E-3,-3.9007258E-2,-8.4269434E-1,2.4141438E-1,-1.6542764E-2,3.944979E-1,-4.6275534E-2,-6.2717324E-1,-1.7760484E-1,-2.48841E-3,2.47805E-2,-6.0677994E-2,-8.421945E-3,-8.620453E-3,2.3853047E-2,2.1447556E-2,-2.3758007E-2,-7.2458986E-4,-3.5631444E-2,4.0736957E-3,-1.6529506E-2],"categories":[],"categories_nodes":[],"categories_segments":[],"categories_sizes":[],"default_left":[0,0,0,0,0,0,0,0,0,0,0,0,0,0,0,0,0,0,0,0,0,0,0,0,0,0,0,0,0,0,0,0,0,0,0,0,0,0,0,0,0,0,0,0,0],"id":6,"left_children":[1,3,5,7,9,11,13,15,-1,17,19,21,-1,23,-1,25,-1,27,-1,-1,-1,29,31,-1,-1,33,35,37,-1,39,-1,41,43,-1,-1,-1,-1,-1,-1,-1,-1,-1,-1,-1,-1],"loss_changes":[7.490838E0,5.980466E0,1.0840975E1,5.45651E0,3.6093264E0,9.175315E0,1.4026823E0,5.2521033E0,0E0,1.7025745E0,1.6183281E0,9.42775E0,0E0,9.78741E-2,0E0,5.1245995E0,0E0,1.0511777E0,0E0,0E0,0E0,6.652788E0,9.0705395E-1,0E0,0E0,5.8294306E0,1.7960544E0,9.5989424E-1,0E0,4.5483856E0,0E0,4.0852976E-1,5.818278E-1,0E0,0E0,0E0,0E0,0E0,0E0,0E0,0E0,0E0,0E0,0E0,0E0],"parents":[2147483647,0,0,1,1,2,2,3,3,4,4,5,5,6,6,7,7,9,9,10,10,11,11,13,13,15,15,17,17,21,21,22,22,25,25,26,26,27,27,29,29,31,31,32,32],"right_children":[2,4,6,8,10,12,14,16,-1,18,20,22,-1,24,-1,26,-1,28,-1,-1,-1,30,32,-1,-1,34,36,38,-1,40,-1,42,44,-1,-1,-1,-1,-1,-1,-1,-1,-1,-1,-1,-1],"split_conditions":[1.0181333E0,7.206319E0,1.3130934E0,1.7492855E1,5.5479217E-1,5.565893E0,1.9485571E0,1.4774495E1,5.6027163E-2,7.336309E0,-2.0316088E0,4.5747757E0,-6.3171394E-2,6.2741876E-1,-5.9900768E-2,1.1770534E1,-5.9688646E-2,5.4365647E-1,4.4294648E-2,-3.154278E-5,6.961464E-2,1.0066446E1,6.592264E-1,-1.3939572E-2,2.9423237E-3,6.965352E0,2.0942695E0,-6.2283945E-1,-1.6542764E-2,1.0066446E1,-4.6275534E-2,-2.1913848E0,-1.1764683E0,-2.48841E-3,2.47805E-2,-6.0677994E-2,-8.421945E-3,-8.620453E-3,2.3853047E-2,2.1447556E-2,-2.3758007E-2,-7.2458986E-4,-3.5631444E-2,4.0736957E-3,-1.6529506E-2],"split_indices":[20,288,1,1514,20,870,318,556,0,902,1,1659,0,0,0,1716,0,20,0,0,0,78,104,0,0,827,905,0,0,1416,0,1,22,0,0,0,0,0,0,0,0,0,0,0,0],"split_type":[0,0,0,0,0,0,0,0,0,0,0,0,0,0,0,0,0,0,0,0,0,0,0,0,0,0,0,0,0,0,0,0,0,0,0,0,0,0,0,0,0,0,0,0,0],"sum_hessian":[1.217E3,1.04E3,1.77E2,1.021E3,1.9E1,1.7E2,7E0,1.018E3,3E0,1.4E1,5E0,1.67E2,3E0,2E0,5E0,1.015E3,3E0,1.2E1,2E0,1E0,4E0,1.47E2,2E1,1E0,1E0,1.008E3,7E0,8E0,4E0,1.44E2,3E0,7E0,1.3E1,9.89E2,1.9E1,4E0,3E0,3E0,5E0,1.39E2,5E0,1E0,6E0,5E0,8E0],"tree_param":{"num_deleted":"0","num_feature":"2072","num_nodes":"45","size_leaf_vector":"1"}},{"base_weights":[-1.3272653E-2,-3.4486086E-4,-4.4023934E-1,6.314467E-3,-7.86777E-1,-5.5844176E-1,3.2249518E-2,-7.285585E-3,3.753084E-1,-1.0354168E0,-1.5496302E-1,-6.2523323E-1,3.9472144E-2,-1.5890092E-2,5.299447E-1,4.634085E-1,-4.6223126E-2,-5.5951454E-2,-1.3343597E-2,-1.5633559E-2,7.954038E-3,-2.2041366E-1,-8.9061433E-1,-2.8709278E-2,3.5088694E-1,-3.0751252E-1,7.17937E-1,1.5589108E-1,8.702914E-1,5.70958E-1,-4.8814756E-1,-1.0743108E0,6.682491E-2,-1.156326E-3,-4.429739E-2,-2.0500679E-2,2.6796473E-2,1.1694002E-2,-2.8296838E-2,1.0228658E-2,4.7708083E-2,1.9642204E-2,-1.4133996E-2,4.792112E-2,-1.3495124E-2,3.6040593E-2,3.0349137E-3,-3.750068E-2,7.88107E-3,-2.5909577E-2,-6.780816E-2,1.3556115E-2,-1.3651681E-2],"categories":[],"categories_nodes":[],"categories_segments":[],"categories_sizes":[],"default_left":[0,0,0,0,0,0,0,0,0,0,0,0,0,0,0,0,0,0,0,0,0,0,0,0,0,0,0,0,0,0,0,0,0,0,0,0,0,0,0,0,0,0,0,0,0,0,0,0,0,0,0,0,0],"id":7,"left_children":[1,3,5,7,9,11,-1,13,15,17,19,21,-1,23,25,27,-1,-1,-1,-1,-1,29,31,33,35,37,39,41,43,45,47,49,51,-1,-1,-1,-1,-1,-1,-1,-1,-1,-1,-1,-1,-1,-1,-1,-1,-1,-1,-1,-1],"loss_changes":[6.7615256E0,6.2371287E0,4.978153E0,5.9293904E0,1.41049E0,3.4644833E0,0E0,5.278186E0,5.2378216E0,1.5118027E-1,2.4784905E-1,3.2415028E0,0E0,5.2901773E0,3.054614E0,4.869273E0,0E0,0E0,0E0,0E0,0E0,3.24499E0,3.413476E0,5.1768413E0,5.570097E0,6.9199705E-1,1.6238422E0,2.6051464E0,1.9669504E0,2.6210546E-1,1.9783728E0,1.8051453E0,3.5175437E-1,0E0,0E0,0E0,0E0,0E0,0E0,0E0,0E0,0E0,0E0,0E0,0E0,0E0,0E0,0E0,0E0,0E0,0E0,0E0,0E0],"parents":[2147483647,0,0,1,1,2,2,3,3,4,4,5,5,7,7,8,8,9,9,10,10,11,11,13,13,14,14,15,15,21,21,22,22,23,23,24,24,25,25,26,26,27,27,28,28,29,29,30,30,31,31,32,32],"right_children":[2,4,6,8,10,12,-1,14,16,18,20,22,-1,24,26,28,-1,-1,-1,-1,-1,30,32,34,36,38,40,42,44,46,48,50,52,-1,-1,-1,-1,-1,-1,-1,-1,-1,-1,-1,-1,-1,-1,-1,-1,-1,-1,-1,-1],"split_conditions":[5.626684E0,1.2349089E1,2.636924E0,5.506953E0,1.6865818E-1,1.2349089E1,3.2249518E-2,8.703447E0,6.746492E0,3.9376867E0,9.12715E-1,-2.2615264E-1,3.9472144E-2,5.689426E0,-7.357705E-1,-3.8378847E-1,-4.6223126E-2,-5.5951454E-2,-1.3343597E-2,-1.5633559E-2,7.954038E-3,3.559593E-1,7.633211E-1,1.302135E1,-1.6303631E0,-1.3696173E-1,-2.2551632E-1,1.1663247E0,1.3152312E0,1.9618733E-1,-1.813426E-1,-2.3515029E-1,9.60961E-1,-1.156326E-3,-4.429739E-2,-2.0500679E-2,2.6796473E-2,1.1694002E-2,-2.8296838E-2,1.0228658E-2,4.7708083E-2,1.9642204E-2,-1.4133996E-2,4.792112E-2,-1.3495124E-2,3.6040593E-2,3.0349137E-3,-3.750068E-2,7.88107E-3,-2.5909577E-2,-6.780816E-2,1.3556115E-2,-1.3651681E-2],"split_indices":[1247,2020,1746,405,0,734,0,57,1868,676,0,19,0,497,0,5,0,0,0,0,0,22,4,525,21,2,10,20,15,0,4,20,0,0,0,0,0,0,0,0,0,0,0,0,0,0,0,0,0,0,0,0,0],"split_type":[0,0,0,0,0,0,0,0,0,0,0,0,0,0,0,0,0,0,0,0,0,0,0,0,0,0,0,0,0,0,0,0,0,0,0,0,0,0,0,0,0,0,0,0,0,0,0,0,0,0,0,0,0],"sum_hessian":[1.224E3,1.189E3,3.5E1,1.18E3,9E0,3.2E1,3E0,1.139E3,4.1E1,6E0,3E0,3.1E1,1E0,1.122E3,1.7E1,3.9E1,2E0,5E0,1E0,2E0,1E0,1.3E1,1.8E1,1.085E3,3.7E1,3E0,1.4E1,2.3E1,1.6E1,3E0,1E1,1.5E1,3E0,1.079E3,6E0,7E0,3E1,1E0,2E0,5E0,9E0,1.5E1,8E0,1.5E1,1E0,2E0,1E0,7E0,3E0,6E0,9E0,2E0,1E0],"tree_param":{"num_deleted":"0","num_feature":"2072","num_nodes":"53","size_leaf_vector":"1"}},{"base_weights":[9.317697E-3,-3.0412849E-3,5.008946E-1,-1.2230742E-2,4.8706213E-1,6.124448E-1,-3.5360288E-2,-2.1898868E-2,4.7212765E-1,-5.5046225E-1,7.4820435E-1,7.2785616E-1,-2.619872E-1,-3.9407734E-2,2.665334E-1,6.910944E-1,-7.407379E-1,-6.4909696E-3,-3.1158406E-2,6.241083E-3,1.0330948E0,8.201452E-1,3.830242E-2,3.4228563E-3,-1.9747717E-2,-3.3791717E-2,-1.2468326E0,3.8000983E-1,-6.0367197E-1,9.9318004E-1,1.1381841E-1,-5.759896E-2,-1.098322E-2,1.6015053E-2,-1.1543209E-2,1.1241238E0,-1.4813662E-3,9.051928E-1,-2.0220438E-2,-1.8554926E-4,2.6771943E-3,-1.9182835E-3,4.795552E-2,-7.024653E-2,-1.5361011E-2,2.157106E-2,-3.6173813E-2,2.4425639E-2,-4.1474294E-2,5.3003132E-2,4.7647E-3,-1.128358E-2,1.3229685E-2,5.9003122E-2,1.2719989E-2,3.1750754E-2,5.8242638E-2,-6.5663457E-3,5.049813E-3],"categories":[],"categories_nodes":[],"categories_segments":[],"categories_sizes":[],"default_left":[0,0,0,0,0,0,0,0,0,0,0,0,0,0,0,0,0,0,0,0,0,0,0,0,0,0,0,0,0,0,0,0,0,0,0,0,0,0,0,0,0,0,0,0,0,0,0,0,0,0,0,0,0,0,0,0,0,0,0],"id":8,"left_children":[1,3,5,7,9,11,-1,13,15,17,19,21,23,25,27,29,31,-1,-1,33,35,37,39,-1,-1,41,43,45,47,49,51,-1,-1,-1,-1,53,-1,55,57,-1,-1,-1,-1,-1,-1,-1,-1,-1,-1,-1,-1,-1,-1,-1,-1,-1,-1,-1,-1],"loss_changes":[7.431726E0,5.383476E0,4.47604E0,5.503308E0,6.372568E0,3.0164328E0,0E0,5.8231945E0,6.6201954E0,7.2016716E-2,3.7983599E0,1.5595407E0,2.0279041E-1,7.3219466E0,6.7467556E0,3.3746939E0,6.040988E-1,0E0,0E0,5.2073765E-1,1.2909079E0,1.5906658E0,2.7600839E-3,0E0,0E0,4.9506836E0,3.1113148E-1,3.659295E0,2.378258E0,6.796713E-1,4.6920484E-1,0E0,0E0,0E0,0E0,2.8360558E-1,0E0,6.633892E-1,5.3667404E-2,0E0,0E0,0E0,0E0,0E0,0E0,0E0,0E0,0E0,0E0,0E0,0E0,0E0,0E0,0E0,0E0,0E0,0E0,0E0,0E0],"parents":[2147483647,0,0,1,1,2,2,3,3,4,4,5,5,7,7,8,8,9,9,10,10,11,11,12,12,13,13,14,14,15,15,16,16,19,19,20,20,21,21,22,22,25,25,26,26,27,27,28,28,29,29,30,30,35,35,37,37,38,38],"right_children":[2,4,6,8,10,12,-1,14,16,18,20,22,24,26,28,30,32,-1,-1,34,36,38,40,-1,-1,42,44,46,48,50,52,-1,-1,-1,-1,54,-1,56,58,-1,-1,-1,-1,-1,-1,-1,-1,-1,-1,-1,-1,-1,-1,-1,-1,-1,-1,-1,-1],"split_conditions":[6.2765226E0,7.0828433E0,4.0069385E0,7.771744E0,-1.4849801E0,4.321977E0,-3.5360288E-2,2.0849924E0,6.61166E-1,-7.9535866E-1,-4.962305E-1,2.6444313E-1,-3.8643926E-1,1.3815752E1,3.1469805E0,4.183564E-1,7.794227E-2,-6.4909696E-3,-3.1158406E-2,-6.895257E-1,1.59635E1,1.1770534E1,-2.1913848E0,3.4228563E-3,-1.9747717E-2,1.7492855E1,-5.319835E-1,5.9621825E0,-8.9795977E-1,6.582864E-1,-1.8800235E-1,-5.759896E-2,-1.098322E-2,1.6015053E-2,-1.1543209E-2,7.0828433E0,-1.4813662E-3,-2.7059904E-1,-2.4417382E-1,-1.8554926E-4,2.6771943E-3,-1.9182835E-3,4.795552E-2,-7.024653E-2,-1.5361011E-2,2.157106E-2,-3.6173813E-2,2.4425639E-2,-4.1474294E-2,5.3003132E-2,4.7647E-3,-1.128358E-2,1.3229685E-2,5.9003122E-2,1.2719989E-2,3.1750754E-2,5.8242638E-2,-6.5663457E-3,5.049813E-3],"split_indices":[1720,912,646,979,15,1689,0,16,21,0,4,16,6,156,16,18,0,0,0,7,1236,1716,1,0,0,1926,0,1291,1,21,0,0,0,0,0,116,0,10,0,0,0,0,0,0,0,0,0,0,0,0,0,0,0,0,0,0,0,0,0],"split_type":[0,0,0,0,0,0,0,0,0,0,0,0,0,0,0,0,0,0,0,0,0,0,0,0,0,0,0,0,0,0,0,0,0,0,0,0,0,0,0,0,0,0,0,0,0,0,0,0,0,0,0,0,0,0,0,0,0,0,0],"sum_hessian":[1.222E3,1.193E3,2.9E1,1.172E3,2.1E1,2.7E1,2E0,1.15E3,2.2E1,4E0,1.7E1,2.4E1,3E0,1.085E3,6.5E1,1.9E1,3E0,1E0,3E0,5E0,1.2E1,2.1E1,3E0,1E0,2E0,1.081E3,4E0,5.8E1,7E0,1.2E1,7E0,1E0,2E0,2E0,3E0,1.1E1,1E0,1.9E1,2E0,1E0,2E0,1.077E3,4E0,3E0,1E0,5.6E1,2E0,1E0,6E0,1.1E1,1E0,2E0,5E0,1E1,1E0,1.1E1,8E0,1E0,1E0],"tree_param":{"num_deleted":"0","num_feature":"2072","num_nodes":"59","size_leaf_vector":"1"}},{"base_weights":[-6.854581E-3,7.284188E-2,-7.9158664E-2,1.0650096E-1,-3.0102918E-1,-9.842525E-2,5.2013665E-1,7.9640284E-2,6.4697546E-1,9.8818585E-2,-5.6640595E-1,-1.16248764E-1,4.6960273E-1,8.174572E-1,-3.0985403E-1,9.725093E-2,-5.970452E-1,2.0985574E-1,1.0343279E0,-4.8386943E-2,2.7108824E-1,2.6189962E-1,-7.498821E-1,3.1019066E-2,-1.973833E-1,7.441834E-1,-3.730603E-2,8.9581317E-1,-6.9881678E-3,1.8523312E-1,-4.333428E-2,1.2741368E-1,-3.028141E-1,-7.30383E-1,9.087515E-2,4.857947E-1,-3.2880554E-1,1.1226367E0,-6.344557E-4,3.8875148E-1,-2.2340592E-2,-2.5209522E-2,5.1595575E-1,3.85333E-2,-8.4950006E-1,4.7595146E-1,-3.8518883E-2,-1.6260435E-1,-7.166397E-1,9.828074E-1,2.2649098E-2,9.8262906E-1,1.2497267E-2,1.8884612E-2,-4.817327E-3,6.939267E-3,-4.6871968E-2,-1.8530982E-2,5.0064366E-2,-4.424314E-2,-1.1741321E-3,1.1309087E-2,-4.493451E-3,1.1102147E-2,3.2619376E-2,8.5303787E-4,-2.0976866E-2,6.126762E-2,-1.8091201E-4,2.2168716E-3,3.6381166E-2,2.8397262E-2,7.6999427E-3,-1.5930803E-2,-5.090644E-2,1.7924698E-2,6.872093E-2,-3.45711E-4,-4.927532E-2,-9.740504E-3,2.0053742E-2,-4.337222E-2,3.1407062E-2,6.250596E-2,3.0664096E-2,-1.3865316E-2,8.348227E-3,5.1802974E-2,9.872365E-3,2.3126602E-3,-2.6739598E-3],"categories":[],"categories_nodes":[],"categories_segments":[],"categories_sizes":[],"default_left":[0,0,0,0,0,0,0,0,0,0,0,0,0,0,0,0,0,0,0,0,0,0,0,0,0,0,0,0,0,0,0,0,0,0,0,0,0,0,0,0,0,0,0,0,0,0,0,0,0,0,0,0,0,0,0,0,0,0,0,0,0,0,0,0,0,0,0,0,0,0,0,0,0,0,0,0,0,0,0,0,0,0,0,0,0,0,0,0,0,0,0],"id":9,"left_children":[1,3,5,7,9,11,13,15,17,19,21,23,25,27,29,31,33,35,37,-1,39,41,43,45,47,49,-1,51,-1,53,-1,55,57,59,61,63,65,67,-1,69,-1,-1,71,-1,73,75,77,79,81,83,85,87,-1,-1,89,-1,-1,-1,-1,-1,-1,-1,-1,-1,-1,-1,-1,-1,-1,-1,-1,-1,-1,-1,-1,-1,-1,-1,-1,-1,-1,-1,-1,-1,-1,-1,-1,-1,-1,-1,-1],"loss_changes":[7.0012956E0,7.3057003E0,7.406235E0,7.6572723E0,5.149265E0,6.3113794E0,5.1887574E0,6.0999165E0,4.0159254E0,3.9370515E0,4.60365E0,7.175227E0,6.8977184E0,1.2502623E0,1.8146195E0,6.0117764E0,1.2588091E0,2.0920215E0,1.2162361E0,0E0,1.6941669E0,1.427919E0,4.290057E0,6.6394258E0,6.8723774E0,2.7325468E0,0E0,5.393982E-1,0E0,1.4812721E-1,0E0,5.7124224E0,3.4659827E0,1.1804409E0,9.369437E-2,2.5059414E-1,1.6406292E-1,1.3926439E0,0E0,1.8351347E0,0E0,0E0,6.6269636E-3,0E0,1.7346191E0,2.5676994E0,5.560021E0,6.686081E0,5.412059E0,4.186678E-1,2.627413E-1,2.9886246E-1,0E0,0E0,9.929147E-3,0E0,0E0,0E0,0E0,0E0,0E0,0E0,0E0,0E0,0E0,0E0,0E0,0E0,0E0,0E0,0E0,0E0,0E0,0E0,0E0,0E0,0E0,0E0,0E0,0E0,0E0,0E0,0E0,0E0,0E0,0E0,0E0,0E0,0E0,0E0,0E0],"parents":[2147483647,0,0,1,1,2,2,3,3,4,4,5,5,6,6,7,7,8,8,9,9,10,10,11,11,12,12,13,13,14,14,15,15,16,16,17,17,18,18,20,20,21,21,22,22,23,23,24,24,25,25,27,27,29,29,31,31,32,32,33,33,34,34,35,35,36,36,37,37,39,39,42,42,44,44,45,45,46,46,47,47,48,48,49,49,50,50,51,51,54,54],"right_children":[2,4,6,8,10,12,14,16,18,20,22,24,26,28,30,32,34,36,38,-1,40,42,44,46,48,50,-1,52,-1,54,-1,56,58,60,62,64,66,68,-1,70,-1,-1,72,-1,74,76,78,80,82,84,86,88,-1,-1,90,-1,-1,-1,-1,-1,-1,-1,-1,-1,-1,-1,-1,-1,-1,-1,-1,-1,-1,-1,-1,-1,-1,-1,-1,-1,-1,-1,-1,-1,-1,-1,-1,-1,-1,-1,-1],"split_conditions":[2.4959553E-2,3.3440304E0,6.1135097E0,3.748202E0,5.6163847E-2,5.626684E0,1.2247449E0,6.965352E0,1.3008158E-3,-1.0670604E0,-3.1850135E-1,-4.396313E-1,3.1080093E0,1.1960093E0,-5.3429216E-1,4.5747757E0,9.180293E0,-3.8974607E-1,2.045322E0,-4.8386943E-2,3.3292212E0,-9.4315577E-1,1.9023384E-1,-7.469739E-1,4.321977E0,3.1944294E0,-3.730603E-2,1.8298749E0,-6.9881678E-3,-7.0487696E-1,-4.333428E-2,9.7435875E0,8.703447E0,4.0550194E0,-1.0367475E0,-3.8008565E-1,-9.9830085E-1,9.449556E0,-6.344557E-4,3.0566934E-1,-2.2340592E-2,-2.5209522E-2,-2.7222717E-1,3.85333E-2,1.8434427E0,5.565893E0,7.0828433E0,4.38148E0,2.1629305E-1,9.004932E-2,-6.911282E-1,1.59635E1,1.2497267E-2,1.8884612E-2,-5.5544025E-1,6.939267E-3,-4.6871968E-2,-1.8530982E-2,5.0064366E-2,-4.424314E-2,-1.1741321E-3,1.1309087E-2,-4.493451E-3,1.1102147E-2,3.2619376E-2,8.5303787E-4,-2.0976866E-2,6.126762E-2,-1.8091201E-4,2.2168716E-3,3.6381166E-2,2.8397262E-2,7.6999427E-3,-1.5930803E-2,-5.090644E-2,1.7924698E-2,6.872093E-2,-3.45711E-4,-4.927532E-2,-9.740504E-3,2.0053742E-2,-4.337222E-2,3.1407062E-2,6.250596E-2,3.0664096E-2,-1.3865316E-2,8.348227E-3,5.1802974E-2,9.872365E-3,2.3126602E-3,-2.6739598E-3],"split_indices":[21,811,58,1481,2,472,1223,1606,9,10,1,15,1778,15,1,1454,312,7,2,0,9,1,22,16,867,777,0,25,0,1,0,847,322,769,1,10,1,1258,0,17,0,0,20,0,1349,1884,103,416,20,15,1,685,0,0,1,0,0,0,0,0,0,0,0,0,0,0,0,0,0,0,0,0,0,0,0,0,0,0,0,0,0,0,0,0,0,0,0,0,0,0,0],"split_type":[0,0,0,0,0,0,0,0,0,0,0,0,0,0,0,0,0,0,0,0,0,0,0,0,0,0,0,0,0,0,0,0,0,0,0,0,0,0,0,0,0,0,0,0,0,0,0,0,0,0,0,0,0,0,0,0,0,0,0,0,0,0,0,0,0,0,0,0,0,0,0,0,0,0,0,0,0,0,0,0,0,0,0,0,0,0,0,0,0,0,0],"sum_hessian":[1.213E3,5.77E2,6.36E2,5.3E2,4.7E1,6.17E2,1.9E1,5.06E2,2.4E1,1.9E1,2.8E1,5.99E2,1.8E1,1.4E1,5E0,4.94E2,1.2E1,1.2E1,1.2E1,2E0,1.7E1,5E0,2.3E1,2.13E2,3.86E2,1.5E1,3E0,1.3E1,1E0,3E0,2E0,4.6E2,3.4E1,1E1,2E0,8E0,4E0,1.1E1,1E0,1.5E1,2E0,1E0,4E0,1E0,2.2E1,2.8E1,1.85E2,3.63E2,2.3E1,1.1E1,4E0,1.1E1,2E0,1E0,2E0,4.56E2,4E0,3.3E1,1E0,8E0,2E0,1E0,1E0,4E0,4E0,1E0,3E0,1E1,1E0,8E0,7E0,3E0,1E0,6E0,1.6E1,2.6E1,2E0,1.8E2,5E0,3.44E2,1.9E1,2.1E1,2E0,5E0,6E0,1E0,3E0,1E1,1E0,1E0,1E0],"tree_param":{"num_deleted":"0","num_feature":"2072","num_nodes":"91","size_leaf_vector":"1"}},{"base_weights":[4.6622176E-3,-1.4362902E-3,8.226994E-1,-8.807368E-3,6.768133E-1,9.8447645E-1,1.7098665E-1,7.183001E-4,-5.9893525E-1,-7.0697702E-3,8.3843267E-1,1.4033771E-2,5.274987E-2,8.5160736E-4,1.1972392E-2,-1.3893847E-2,3.7762895E-1,-4.4622183E-2,-7.9371685E-1,1.0192021E-2,9.568043E-1,-8.474563E-3,-1.03221E0,4.716374E-1,-5.3218275E-2,9.565854E-2,-1.0839454E-2,-1.70253E-1,-1.0260772E0,6.1353482E-2,3.0858E-2,-1.06728454E-4,-3.9895948E-2,1.7011643E-3,-6.261306E-2,-4.7686766E-3,3.1458344E-2,9.773374E-4,5.7256776E-3,8.775103E-3,-1.5028364E-2,-5.6492902E-2,-2.301228E-3],"categories":[],"categories_nodes":[],"categories_segments":[],"categories_sizes":[],"default_left":[0,0,0,0,0,0,0,0,0,0,0,0,0,0,0,0,0,0,0,0,0,0,0,0,0,0,0,0,0,0,0,0,0,0,0,0,0,0,0,0,0,0,0],"id":10,"left_children":[1,3,5,7,9,11,13,15,17,-1,19,-1,-1,-1,-1,21,23,25,27,-1,29,31,33,35,-1,37,-1,39,41,-1,-1,-1,-1,-1,-1,-1,-1,-1,-1,-1,-1,-1,-1],"loss_changes":[6.06757E0,6.0452733E0,7.805567E-1,6.723579E0,1.8376493E0,5.1317215E-2,2.7541414E-2,6.4930506E0,2.0160131E0,0E0,6.3125896E-1,0E0,0E0,0E0,0E0,6.2548E0,6.46662E0,1.6564792E-1,1.8534622E0,0E0,6.884861E-2,5.6540294E0,1.4503622E0,3.8114853E0,0E0,3.501989E-3,0E0,2.7803427E-1,9.65106E-1,0E0,0E0,0E0,0E0,0E0,0E0,0E0,0E0,0E0,0E0,0E0,0E0,0E0,0E0],"parents":[2147483647,0,0,1,1,2,2,3,3,4,4,5,5,6,6,7,7,8,8,10,10,15,15,16,16,17,17,18,18,20,20,21,21,22,22,23,23,25,25,27,27,28,28],"right_children":[2,4,6,8,10,12,14,16,18,-1,20,-1,-1,-1,-1,22,24,26,28,-1,30,32,34,36,-1,38,-1,40,42,-1,-1,-1,-1,-1,-1,-1,-1,-1,-1,-1,-1,-1,-1],"split_conditions":[1.1770534E1,3.2904475E0,-5.5869573E-1,2.3090205E0,-2.9762405E-1,6.071692E-1,-1.5249652E-1,5.2369766E0,6.592264E-1,-7.0697702E-3,2.604054E-1,1.4033771E-2,5.274987E-2,8.5160736E-4,1.1972392E-2,1.4774495E1,8.490891E0,2.3563707E0,1.9220275E0,1.0192021E-2,6.76138E-1,1.2349089E1,-9.983629E-1,-1.8561754E0,-5.3218275E-2,2.6526484E0,-1.0839454E-2,7.9737353E-1,9.180293E0,6.1353482E-2,3.0858E-2,-1.06728454E-4,-3.9895948E-2,1.7011643E-3,-6.261306E-2,-4.7686766E-3,3.1458344E-2,9.773374E-4,5.7256776E-3,8.775103E-3,-1.5028364E-2,-5.6492902E-2,-2.301228E-3],"split_indices":[1678,13,2,13,21,6,2,1591,104,0,5,0,0,0,0,556,1531,2,680,0,10,2020,10,15,0,4,0,3,1522,0,0,0,0,0,0,0,0,0,0,0,0,0,0],"split_type":[0,0,0,0,0,0,0,0,0,0,0,0,0,0,0,0,0,0,0,0,0,0,0,0,0,0,0,0,0,0,0,0,0,0,0,0,0,0,0,0,0,0,0],"sum_hessian":[1.215E3,1.207E3,8E0,1.195E3,1.2E1,6E0,2E0,1.177E3,1.8E1,2E0,1E1,1E0,5E0,1E0,1E0,1.134E3,4.3E1,5E0,1.3E1,2E0,8E0,1.129E3,5E0,4.1E1,2E0,3E0,2E0,4E0,9E0,3E0,5E0,1.121E3,8E0,1E0,4E0,9E0,3.2E1,1E0,2E0,1E0,3E0,8E0,1E0],"tree_param":{"num_deleted":"0","num_feature":"2072","num_nodes":"43","size_leaf_vector":"1"}},{"base_weights":[-1.3442272E-3,-7.377241E-3,1.0442829E0,-2.4119401E-2,3.2049686E-1,9.525776E-3,5.7741243E-2,-3.0843655E-2,7.4889207E-1,4.6884957E-1,-3.6948308E-1,-3.9923165E-2,5.403568E-1,5.2146222E-2,4.7112465E-2,5.252113E-1,-5.5912804E-2,2.1827161E-2,-4.9374002E-1,-1.9920732E-1,-7.684958E-3,9.997143E-1,-3.008E-2,-4.563427E-3,6.1831158E-3,1.877806E-1,7.595267E-1,-5.762346E-1,6.217766E-3,1.3047417E-2,-1.3851518E-2,-1.0368692E-3,2.5680562E-2,8.576981E-3,5.9265774E-2,-1.2178323E-2,4.194529E-2,3.3550344E-2,-1.562583E-2,4.1126125E-2,-2.353393E-2,-3.475105E-2,-5.3494056E-3],"categories":[],"categories_nodes":[],"categories_segments":[],"categories_sizes":[],"default_left":[0,0,0,0,0,0,0,0,0,0,0,0,0,0,0,0,0,0,0,0,0,0,0,0,0,0,0,0,0,0,0,0,0,0,0,0,0,0,0,0,0,0,0],"id":11,"left_children":[1,3,5,7,9,-1,-1,11,13,15,17,19,21,-1,23,25,-1,-1,27,29,31,33,35,-1,-1,37,39,41,-1,-1,-1,-1,-1,-1,-1,-1,-1,-1,-1,-1,-1,-1,-1],"loss_changes":[7.6975007E0,6.6662765E0,4.4062853E-1,6.026703E0,6.212496E0,0E0,0E0,5.964981E0,2.0143237E0,4.9704676E0,1.317237E0,5.795924E0,4.7466917E0,0E0,5.3658664E-2,3.6525059E0,0E0,0E0,5.8155227E-1,6.8763247E0,6.4065804E0,1.3337736E0,1.8739796E0,0E0,0E0,5.2865925E0,2.5570774E0,4.2730188E-1,0E0,0E0,0E0,0E0,0E0,0E0,0E0,0E0,0E0,0E0,0E0,0E0,0E0,0E0,0E0],"parents":[2147483647,0,0,1,1,2,2,3,3,4,4,7,7,8,8,9,9,10,10,11,11,12,12,14,14,15,15,18,18,19,19,20,20,21,21,22,22,25,25,26,26,27,27],"right_children":[2,4,6,8,10,-1,-1,12,14,16,18,20,22,-1,24,26,-1,-1,28,30,32,34,36,-1,-1,38,40,42,-1,-1,-1,-1,-1,-1,-1,-1,-1,-1,-1,-1,-1,-1,-1],"split_conditions":[1.4774495E1,4.475198E0,-1.0127295E0,1.126573E1,4.18258E0,9.525776E-3,5.7741243E-2,8.703447E0,2.4579024E0,6.3628993E0,-3.3353126E-1,-8.898932E-1,2.6444313E-1,5.2146222E-2,4.293221E-1,4.9471626E-1,-5.5912804E-2,2.1827161E-2,1.9563997E1,-1.1200005E0,6.965352E0,-3.9297795E-1,7.476938E-1,-4.563427E-3,6.1831158E-3,1.8419391E-1,1.126573E1,3.6903994E0,6.217766E-3,1.3047417E-2,-1.3851518E-2,-1.0368692E-3,2.5680562E-2,8.576981E-3,5.9265774E-2,-1.2178323E-2,4.194529E-2,3.3550344E-2,-1.562583E-2,4.1126125E-2,-2.353393E-2,-3.475105E-2,-5.3494056E-3],"split_indices":[89,717,1,321,37,0,0,1123,1316,1274,17,10,16,0,1,1,0,0,606,13,827,16,1,0,0,1,474,1094,0,0,0,0,0,0,0,0,0,0,0,0,0,0,0],"split_type":[0,0,0,0,0,0,0,0,0,0,0,0,0,0,0,0,0,0,0,0,0,0,0,0,0,0,0,0,0,0,0,0,0,0,0,0,0,0,0,0,0,0,0],"sum_hessian":[1.218E3,1.212E3,6E0,1.154E3,5.8E1,1E0,5E0,1.145E3,9E0,4.8E1,1E1,1.128E3,1.7E1,6E0,3E0,4.7E1,1E0,1E0,9E0,1.89E2,9.39E2,9E0,8E0,1E0,2E0,2E1,2.7E1,8E0,1E0,2.7E1,1.62E2,9.17E2,2.2E1,2E0,7E0,7E0,1E0,1E1,1E1,2.6E1,1E0,6E0,2E0],"tree_param":{"num_deleted":"0","num_feature":"2072","num_nodes":"43","size_leaf_vector":"1"}},{"base_weights":[1.1844083E-3,-4.1658334E-3,6.47853E-2,-1.050598E-2,8.430588E-1,-1.6743025E-1,2.0608E-2,5.0517898E-2,1.7167473E-1,-5.9714492E-2,-6.078099E-1,1.4813512E-2,5.8769204E-2,1.1766077E-3,1.1698998E-2,1.3396594E-1,-2.892302E-1,2.4692993E-1,-7.125496E-1,3.706259E-2,-2.4151416E-1,-9.042088E-4,2.0706266E-2,-1.7724236E-2,2.5470082E-2,3.0168373E-2,-2.9470503E-2,-3.989343E-2,2.3173755E-2,2.2969171E-3,-3.1955194E-2,-1.4651904E-3,-2.9711066E-2],"categories":[],"categories_nodes":[],"categories_segments":[],"categories_sizes":[],"default_left":[0,0,0,0,0,0,0,0,0,0,0,0,0,0,0,0,0,0,0,0,0,0,0,0,0,0,0,0,0,0,0,0,0],"id":12,"left_children":[1,3,-1,5,7,9,11,-1,13,15,17,19,-1,-1,-1,21,23,25,27,29,31,-1,-1,-1,-1,-1,-1,-1,-1,-1,-1,-1,-1],"loss_changes":[8.413566E0,6.508407E0,0E0,5.872262E0,8.374443E-1,9.403435E0,6.7006903E0,0E0,2.2184111E-2,7.195632E0,3.6674318E0,5.7120056E0,0E0,0E0,0E0,3.756137E0,4.0370355E0,1.8461454E0,3.8815937E0,5.5567284E0,5.970436E0,0E0,0E0,0E0,0E0,0E0,0E0,0E0,0E0,0E0,0E0,0E0,0E0],"parents":[2147483647,0,0,1,1,3,3,4,4,5,5,6,6,8,8,9,9,10,10,11,11,15,15,16,16,17,17,18,18,19,19,20,20],"right_children":[2,4,-1,6,8,10,12,-1,14,16,18,20,-1,-1,-1,22,24,26,28,30,32,-1,-1,-1,-1,-1,-1,-1,-1,-1,-1,-1,-1],"split_conditions":[1.3815752E1,1.1770534E1,6.47853E-2,-8.898932E-1,5.264459E-1,7.06259E-2,1.1770534E1,5.0517898E-2,7.373813E-1,5.3282976E-1,6.7247546E-1,3.8502913E0,5.8769204E-2,1.1766077E-3,1.1698998E-2,1.4132483E-1,5.0921335E0,2.0228727E0,3.5474033E0,9.449556E0,1.3275686E-1,-9.042088E-4,2.0706266E-2,-1.7724236E-2,2.5470082E-2,3.0168373E-2,-2.9470503E-2,-3.989343E-2,2.3173755E-2,2.2969171E-3,-3.1955194E-2,-1.4651904E-3,-2.9711066E-2],"split_indices":[1701,1678,0,10,0,0,790,0,0,15,1774,275,0,0,0,15,374,4,1890,938,15,0,0,0,0,0,0,0,0,0,0,0,0],"split_type":[0,0,0,0,0,0,0,0,0,0,0,0,0,0,0,0,0,0,0,0,0,0,0,0,0,0,0,0,0,0,0,0,0],"sum_hessian":[1.213E3,1.209E3,4E0,1.201E3,8E0,1.98E2,1.003E3,6E0,2E0,1.6E2,3.8E1,9.99E2,4E0,1E0,1E0,8.7E1,7.3E1,4E0,3.4E1,9.2E2,7.9E1,5.7E1,3E1,6.8E1,5E0,3E0,1E0,3.2E1,2E0,9.09E2,1.1E1,5E1,2.9E1],"tree_param":{"num_deleted":"0","num_feature":"2072","num_nodes":"33","size_leaf_vector":"1"}},{"base_weights":[-1.3654554E-2,-8.135171E-3,-1.1410125E0,-1.3496522E-2,1.0860428E0,-7.141612E-2,-1.8879771E-2,-1.9360207E-2,8.7947065E-1,6.1325867E-2,9.591746E-3,-3.7629828E-2,2.7144638E-1,1.2160524E-1,5.5591244E-2,-4.3736525E-2,7.380311E-1,1.7706187E-1,1.0043898E0,-1.898408E-4,9.310233E-3,-3.014003E-3,1.2453435E-2,4.35772E-2,9.024525E-3,1.726071E-3,3.2494765E-2,2.09476E-2,5.6485515E-2],"categories":[],"categories_nodes":[],"categories_segments":[],"categories_sizes":[],"default_left":[0,0,0,0,0,0,0,0,0,0,0,0,0,0,0,0,0,0,0,0,0,0,0,0,0,0,0,0,0],"id":13,"left_children":[1,3,5,7,9,-1,-1,11,13,-1,-1,15,17,19,-1,21,23,25,27,-1,-1,-1,-1,-1,-1,-1,-1,-1,-1],"loss_changes":[7.66284E0,7.21844E0,7.7669525E-1,6.42075E0,5.183916E-1,0E0,0E0,6.4707317E0,1.2735424E0,0E0,0E0,5.4558325E0,4.8030124E0,2.5009688E-2,0E0,5.5226784E0,5.1264524E-1,4.3584275E0,1.1364555E-1,0E0,0E0,0E0,0E0,0E0,0E0,0E0,0E0,0E0,0E0],"parents":[2147483647,0,0,1,1,2,2,3,3,4,4,7,7,8,8,11,11,12,12,13,13,15,15,16,16,17,17,18,18],"right_children":[2,4,6,8,10,-1,-1,12,14,-1,-1,16,18,20,-1,22,24,26,28,-1,-1,-1,-1,-1,-1,-1,-1,-1,-1],"split_conditions":[1.4774495E1,1.59635E1,3.9778098E-1,1.4774495E1,6.748502E-1,-7.141612E-2,-1.8879771E-2,1.8768777E0,-1.3028063E0,6.1325867E-2,9.591746E-3,1.126573E1,6.038344E-1,-1.317229E0,5.5591244E-2,4.475198E0,-2.7035318E-2,2.9112384E0,-2.487609E-1,-1.898408E-4,9.310233E-3,-3.014003E-3,1.2453435E-2,4.35772E-2,9.024525E-3,1.726071E-3,3.2494765E-2,2.09476E-2,5.6485515E-2],"split_indices":[49,781,15,89,1,0,0,10,0,0,0,1888,20,0,0,717,0,307,19,0,0,0,0,0,0,0,0,0,0],"split_type":[0,0,0,0,0,0,0,0,0,0,0,0,0,0,0,0,0,0,0,0,0,0,0,0,0,0,0,0,0],"sum_hessian":[1.232E3,1.227E3,5E0,1.222E3,5E0,3E0,2E0,1.215E3,7E0,4E0,1E0,1.144E3,7.1E1,2E0,5E0,1.136E3,8E0,6.4E1,7E0,1E0,1E0,1.076E3,6E1,6E0,2E0,5E1,1.4E1,2E0,5E0],"tree_param":{"num_deleted":"0","num_feature":"2072","num_nodes":"29","size_leaf_vector":"1"}},{"base_weights":[-1.1159022E-2,-1.7104087E-2,8.812524E-1,-2.347888E-2,7.4320686E-1,3.201726E-1,6.811446E-2,-9.117968E-3,-3.5072532E-1,9.164263E-1,2.5427115E-1,2.3189737E-2,-6.3578966E-3,-2.189255E-3,-7.206868E-1,-5.0761366E-1,3.2758936E-1,1.2521244E-2,4.9284454E-2,1.6136384E-2,1.222539E-3,3.7433214E-2,-1.2389932E-1,-1.0199682E0,-1.5755549E-1,-5.5502963E-1,3.4725644E-2,6.01058E-1,-2.3287809E-1,2.2860835E-3,-4.223932E-2,-7.25327E-3,4.2990353E-2,-2.6710689E-2,-6.253653E-2,6.5476896E-4,-1.3784393E-2,-3.1503942E-2,1.3896644E-2,3.4666847E-2,1.1846066E-3,8.396268E-3,-2.1122718E-2],"categories":[],"categories_nodes":[],"categories_segments":[],"categories_sizes":[],"default_left":[0,0,0,0,0,0,0,0,0,0,0,0,0,0,0,0,0,0,0,0,0,0,0,0,0,0,0,0,0,0,0,0,0,0,0,0,0,0,0,0,0,0,0],"id":14,"left_children":[1,3,5,7,9,11,-1,13,15,17,19,-1,-1,21,23,25,27,-1,-1,-1,-1,29,31,33,35,37,-1,39,41,-1,-1,-1,-1,-1,-1,-1,-1,-1,-1,-1,-1,-1,-1],"loss_changes":[6.4134383E0,5.828794E0,1.723032E0,5.589276E0,6.139116E-1,3.8020796E-1,0E0,5.623845E0,5.487272E0,7.606268E-2,5.5039883E-2,0E0,0E0,5.4588327E0,1.6931801E0,2.722476E0,1.6726756E0,0E0,0E0,0E0,0E0,6.2832775E0,5.913023E0,1.16499424E-1,1.04407184E-1,2.6756458E0,0E0,3.5652447E-1,3.7487212E-1,0E0,0E0,0E0,0E0,0E0,0E0,0E0,0E0,0E0,0E0,0E0,0E0,0E0,0E0],"parents":[2147483647,0,0,1,1,2,2,3,3,4,4,5,5,7,7,8,8,9,9,10,10,13,13,14,14,15,15,16,16,21,21,22,22,23,23,24,24,25,25,27,27,28,28],"right_children":[2,4,6,8,10,12,-1,14,16,18,20,-1,-1,22,24,26,28,-1,-1,-1,-1,30,32,34,36,38,-1,40,42,-1,-1,-1,-1,-1,-1,-1,-1,-1,-1,-1,-1,-1,-1],"split_conditions":[1.3815752E1,1.1770534E1,7.2933954E-1,4.7555637E0,2.4956381E-2,4.6896857E-1,6.811446E-2,1.0820209E1,4.9581585E0,2.144912E-1,1.7406554E0,2.3189737E-2,-6.3578966E-3,4.2689428E-1,5.967072E-1,1.4774495E1,5.529513E-1,1.2521244E-2,4.9284454E-2,1.6136384E-2,1.222539E-3,9.7435875E0,1.1645396E0,-4.3432048E-1,-3.8378847E-1,1.4876269E0,3.4725644E-2,1.01472E0,9.467133E-1,2.2860835E-3,-4.223932E-2,-7.25327E-3,4.2990353E-2,-2.6710689E-2,-6.253653E-2,6.5476896E-4,-1.3784393E-2,-3.1503942E-2,1.3896644E-2,3.4666847E-2,1.1846066E-3,8.396268E-3,-2.1122718E-2],"split_indices":[1701,1678,831,1852,0,1,0,1037,1410,1,1,0,0,18,1,1016,20,0,0,0,0,847,20,10,5,10,0,1,0,0,0,0,0,0,0,0,0,0,0,0,0,0,0],"split_type":[0,0,0,0,0,0,0,0,0,0,0,0,0,0,0,0,0,0,0,0,0,0,0,0,0,0,0,0,0,0,0,0,0,0,0,0,0,0,0,0,0,0,0],"sum_hessian":[1.205E3,1.198E3,7E0,1.189E3,9E0,4E0,3E0,1.14E3,4.9E1,6E0,3E0,3E0,1E0,1.13E3,1E1,4E1,9E0,1E0,5E0,2E0,1E0,8.53E2,2.77E2,6E0,4E0,3.9E1,1E0,6E0,3E0,8.46E2,7E0,2.72E2,5E0,3E0,3E0,2E0,2E0,3.6E1,3E0,5E0,1E0,1E0,2E0],"tree_param":{"num_deleted":"0","num_feature":"2072","num_nodes":"43","size_leaf_vector":"1"}},{"base_weights":[-2.6139254E-2,-4.319094E-3,-2.6590472E-1,5.2664187E-3,-6.276872E-1,-3.130557E-1,7.1143526E-1,1.0873857E-2,-8.7665474E-1,-2.2721876E-1,-8.254683E-1,1.6409108E-1,-4.2988962E-1,-9.984386E-3,4.9456898E-2,1.7765498E-2,-6.730136E-1,-5.568427E-2,-1.8938558E-1,-4.0509614E-1,7.2491565E-3,-1.794811E-2,-9.555378E-1,-8.332146E-1,4.6549338E-1,-5.916846E-1,4.5148134E-2,3.1520914E-2,-3.3494064E-1,4.2591214E-2,-9.466893E-1,-2.556157E-3,-1.1647761E-2,-2.7189946E-2,3.7428737E-3,-1.42597435E-2,-5.052795E-2,-5.674202E-2,-1.2692531E-2,6.074784E-1,3.1630706E-2,1.4830601E-1,-6.3397527E-1,-7.2936183E-1,4.8450038E-1,6.3814886E-4,1.4697485E-2,8.3613135E-3,-2.6232136E-2,-6.4252056E-3,1.389693E-2,-6.1509706E-2,-1.77818E-2,5.438292E-3,3.808154E-2,-3.2824755E-3,1.0518789E-2,1.6390545E-2,-9.755218E-3,-2.0223772E-2,-4.3274727E-2,-4.725803E-2,1.9530738E-2,4.08566E-2,1.7567839E-3],"categories":[],"categories_nodes":[],"categories_segments":[],"categories_sizes":[],"default_left":[0,0,0,0,0,0,0,0,0,0,0,0,0,0,0,0,0,0,0,0,0,0,0,0,0,0,0,0,0,0,0,0,0,0,0,0,0,0,0,0,0,0,0,0,0,0,0,0,0,0,0,0,0,0,0,0,0,0,0,0,0,0,0,0,0],"id":15,"left_children":[1,3,5,7,9,11,13,15,17,19,21,23,25,-1,-1,27,29,-1,31,33,-1,-1,35,37,39,41,43,45,47,49,51,-1,-1,-1,-1,-1,-1,-1,-1,53,55,57,59,61,63,-1,-1,-1,-1,-1,-1,-1,-1,-1,-1,-1,-1,-1,-1,-1,-1,-1,-1,-1,-1],"loss_changes":[6.397246E0,6.7075953E0,4.923137E0,5.479055E0,1.1589246E0,5.53374E0,1.462625E0,5.1963735E0,9.2941093E-1,5.2217627E-1,3.244586E-1,6.3996606E0,6.0985527E0,0E0,0E0,5.298823E0,2.1946006E0,0E0,6.1627254E-3,3.735618E-1,0E0,0E0,6.857872E-3,5.856755E-1,9.6641684E-1,1.9404087E0,7.4993124E0,5.1650014E0,3.9934802E0,1.9678362E-1,9.030309E-1,0E0,0E0,0E0,0E0,0E0,0E0,0E0,0E0,8.3969355E-1,1.0075287E-1,3.1053275E-1,2.625414E0,2.30271E0,2.06391E0,0E0,0E0,0E0,0E0,0E0,0E0,0E0,0E0,0E0,0E0,0E0,0E0,0E0,0E0,0E0,0E0,0E0,0E0,0E0,0E0],"parents":[2147483647,0,0,1,1,2,2,3,3,4,4,5,5,6,6,7,7,8,8,9,9,10,10,11,11,12,12,15,15,16,16,18,18,19,19,22,22,23,23,24,24,25,25,26,26,27,27,28,28,29,29,30,30,39,39,40,40,41,41,42,42,43,43,44,44],"right_children":[2,4,6,8,10,12,14,16,18,20,22,24,26,-1,-1,28,30,-1,32,34,-1,-1,36,38,40,42,44,46,48,50,52,-1,-1,-1,-1,-1,-1,-1,-1,54,56,58,60,62,64,-1,-1,-1,-1,-1,-1,-1,-1,-1,-1,-1,-1,-1,-1,-1,-1,-1,-1,-1,-1],"split_conditions":[3.3296568E0,1.3995013E0,3.0054417E0,1.302135E1,5.75595E-1,5.6163847E-2,-1.3992652E0,7.0828433E0,-2.4752626E-1,2.3228934E0,-4.8967263E-1,3.471794E-1,6.038344E-1,-9.984386E-3,4.9456898E-2,3.9834824E0,1.0244019E0,-5.568427E-2,1.3271201E-2,8.56593E-2,7.2491565E-3,-1.794811E-2,-9.0134275E-1,-6.024517E-1,1.2327505E0,-2.4061492E-1,-1.8561754E0,3.748202E0,-5.687644E-1,-7.8197914E-1,-4.12816E-2,-2.556157E-3,-1.1647761E-2,-2.7189946E-2,3.7428737E-3,-1.42597435E-2,-5.052795E-2,-5.674202E-2,-1.2692531E-2,6.668849E-1,1.1226282E0,1.3617913E-1,9.7704835E-2,3.9166313E1,8.2223225E-1,6.3814886E-4,1.4697485E-2,8.3613135E-3,-2.6232136E-2,-6.4252056E-3,1.389693E-2,-6.1509706E-2,-1.77818E-2,5.438292E-3,3.808154E-2,-3.2824755E-3,1.0518789E-2,1.6390545E-2,-9.755218E-3,-2.0223772E-2,-4.3274727E-2,-4.725803E-2,1.9530738E-2,4.08566E-2,1.7567839E-3],"split_indices":[2045,15,138,457,1081,2,1,879,19,585,7,1,20,0,0,2028,1112,0,0,17,0,0,20,0,1,18,15,1481,15,0,2,0,0,0,0,0,0,0,0,9,0,0,15,62,20,0,0,0,0,0,0,0,0,0,0,0,0,0,0,0,0,0,0,0,0],"split_type":[0,0,0,0,0,0,0,0,0,0,0,0,0,0,0,0,0,0,0,0,0,0,0,0,0,0,0,0,0,0,0,0,0,0,0,0,0,0,0,0,0,0,0,0,0,0,0,0,0,0,0,0,0,0,0,0,0,0,0,0,0,0,0,0,0],"sum_hessian":[1.222E3,1.121E3,1.01E2,1.105E3,1.6E1,9.7E1,4E0,1.099E3,6E0,6E0,1E1,1.9E1,7.8E1,1E0,3E0,1.089E3,1E1,4E0,2E0,4E0,2E0,3E0,7E0,4E0,1.5E1,5.8E1,2E1,1.049E3,4E1,3E0,7E0,1E0,1E0,3E0,1E0,1E0,6E0,2E0,2E0,1.1E1,4E0,3E0,5.5E1,7E0,1.3E1,9.8E2,6.9E1,1.1E1,2.9E1,2E0,1E0,4E0,3E0,3E0,8E0,3E0,1E0,2E0,1E0,2.9E1,2.6E1,6E0,1E0,7E0,6E0],"tree_param":{"num_deleted":"0","num_feature":"2072","num_nodes":"65","size_leaf_vector":"1"}},{"base_weights":[1.1371111E-3,-3.4051687E-3,5.491622E-2,-7.8037307E-3,1.0564497E0,-2.9072762E-3,-9.8497796E-1,1.5185297E-2,5.843545E-2,-9.314914E-3,6.899644E-1,2.0297766E-3,-1.1982118E0,2.1900077E-1,-2.776249E-2,8.7620497E-1,1.4499223E-1,-1.7016888E-2,-6.637979E-2,1.35616185E-2,-3.563684E-2,-1.8311491E-3,2.5368918E-2,1.8346256E-2,4.924054E-2,2.291139E-3,1.1062515E-2],"categories":[],"categories_nodes":[],"categories_segments":[],"categories_sizes":[],"default_left":[0,0,0,0,0,0,0,0,0,0,0,0,0,0,0,0,0,0,0,0,0,0,0,0,0,0,0],"id":16,"left_children":[1,3,-1,5,7,9,11,-1,-1,13,15,-1,17,19,21,23,25,-1,-1,-1,-1,-1,-1,-1,-1,-1,-1],"loss_changes":[6.0440226E0,5.639744E0,0E0,5.757902E0,6.756878E-2,5.3295927E0,1.3607635E0,0E0,0E0,5.0139947E0,9.8941183E-1,0E0,1.0314512E-1,4.5246043E0,5.2390943E0,8.113432E-2,2.0111576E-2,0E0,0E0,0E0,0E0,0E0,0E0,0E0,0E0,0E0,0E0],"parents":[2147483647,0,0,1,1,3,3,4,4,5,5,6,6,9,9,10,10,12,12,13,13,14,14,15,15,16,16],"right_children":[2,4,-1,6,8,10,12,-1,-1,14,16,-1,18,20,22,24,26,-1,-1,-1,-1,-1,-1,-1,-1,-1,-1],"split_conditions":[1.7492855E1,1.3815752E1,5.491622E-2,1.4774495E1,-3.8643926E-1,1.1770534E1,-9.983629E-1,1.5185297E-2,5.843545E-2,2.8591555E-1,-5.5869573E-1,2.0297766E-3,-9.247078E-1,3.8371173E-1,8.490891E0,2.1874084E-1,7.373813E-1,-1.7016888E-2,-6.637979E-2,1.35616185E-2,-3.563684E-2,-1.8311491E-3,2.5368918E-2,1.8346256E-2,4.924054E-2,2.291139E-3,1.1062515E-2],"split_indices":[1514,660,0,556,6,1678,10,0,0,1404,2,0,0,1897,181,1,0,0,0,0,0,0,0,0,0,0,0],"split_type":[0,0,0,0,0,0,0,0,0,0,0,0,0,0,0,0,0,0,0,0,0,0,0,0,0,0,0],"sum_hessian":[1.211E3,1.207E3,4E0,1.203E3,4E0,1.198E3,5E0,1E0,3E0,1.188E3,1E1,1E0,4E0,8.8E1,1.1E3,7E0,3E0,1E0,3E0,8.4E1,4E0,1.083E3,1.7E1,2E0,5E0,2E0,1E0],"tree_param":{"num_deleted":"0","num_feature":"2072","num_nodes":"27","size_leaf_vector":"1"}},{"base_weights":[6.529779E-3,-9.940121E-3,3.25937E-1,-4.5478255E-3,-1.0498952E0,3.6852753E-1,-5.4672588E-2,-1.0574393E-2,7.666884E-1,-6.710767E-2,-1.5512626E-2,4.573612E-1,-2.5495726E-1,-1.8222699E-2,6.11879E-1,9.349838E-1,1.6128665E-2,5.188461E-1,-4.1016924E-1,2.1123875E-2,-4.120876E-1,-1.2579687E-2,-9.281751E-1,8.052349E-1,-7.281959E-2,1.0217833E-2,5.2011896E-2,5.6040597E-1,-3.0520678E-1,-3.4324925E-2,1.0470462E-2,5.666232E-3,-2.5927186E-2,2.190532E-3,-5.2718115E-3,-6.883551E-2,-1.2379813E-2,4.7566563E-2,4.926713E-3,-7.2843195E-3,1.5735626E-6,2.958773E-2,-2.2040784E-2,-1.9668246E-2,-3.222263E-3],"categories":[],"categories_nodes":[],"categories_segments":[],"categories_sizes":[],"default_left":[0,0,0,0,0,0,0,0,0,0,0,0,0,0,0,0,0,0,0,0,0,0,0,0,0,0,0,0,0,0,0,0,0,0,0,0,0,0,0,0,0,0,0,0,0],"id":17,"left_children":[1,3,5,7,9,11,-1,13,15,-1,-1,17,19,21,23,25,-1,27,29,-1,31,33,35,37,39,-1,-1,41,43,-1,-1,-1,-1,-1,-1,-1,-1,-1,-1,-1,-1,-1,-1,-1,-1],"loss_changes":[6.43696E0,6.5226407E0,4.0301175E0,5.3950315E0,8.805933E-1,3.384406E0,0E0,5.490732E0,3.7108183E-1,0E0,0E0,2.9864979E0,1.0256621E0,5.8318086E0,1.9121041E0,2.4882889E-1,0E0,1.8491669E0,8.285896E-1,0E0,4.5029736E-1,5.932009E0,1.7959757E0,1.0419722E0,2.1238279E-2,0E0,0E0,1.7360411E0,3.8324744E-2,0E0,0E0,0E0,0E0,0E0,0E0,0E0,0E0,0E0,0E0,0E0,0E0,0E0,0E0,0E0,0E0],"parents":[2147483647,0,0,1,1,2,2,3,3,4,4,5,5,7,7,8,8,11,11,12,12,13,13,14,14,15,15,17,17,18,18,20,20,21,21,22,22,23,23,24,24,27,27,28,28],"right_children":[2,4,6,8,10,12,-1,14,16,-1,-1,18,20,22,24,26,-1,28,30,-1,32,34,36,38,40,-1,-1,42,44,-1,-1,-1,-1,-1,-1,-1,-1,-1,-1,-1,-1,-1,-1,-1,-1],"split_conditions":[4.475198E0,1.3815752E1,6.3628993E0,1.1770534E1,-5.319835E-1,4.18258E0,-5.4672588E-2,9.449556E0,3.7062487E-1,-6.710767E-2,-1.5512626E-2,4.7555637E0,-1.1209489E0,1.4774495E1,3.6025446E-2,-7.0588535E-1,1.6128665E-2,1.1770534E1,8.417988E-1,2.1123875E-2,2.604054E-1,1.2247449E0,3.9778098E-1,2.5459376E-1,3.1653276E-1,1.0217833E-2,5.2011896E-2,6.1135097E0,-3.14873E-1,-3.4324925E-2,1.0470462E-2,5.666232E-3,-2.5927186E-2,2.190532E-3,-5.2718115E-3,-6.883551E-2,-1.2379813E-2,4.7566563E-2,4.926713E-3,-7.2843195E-3,1.5735626E-6,2.958773E-2,-2.2040784E-2,-1.9668246E-2,-3.222263E-3],"split_indices":[717,156,1274,1368,0,37,0,968,0,0,0,553,2,49,0,5,0,1552,0,0,5,1223,15,3,0,0,0,58,0,0,0,0,0,0,0,0,0,0,0,0,0,0,0,0,0],"split_type":[0,0,0,0,0,0,0,0,0,0,0,0,0,0,0,0,0,0,0,0,0,0,0,0,0,0,0,0,0,0,0,0,0,0,0,0,0,0,0,0,0,0,0,0,0],"sum_hessian":[1.222E3,1.163E3,5.9E1,1.158E3,5E0,5.8E1,1E0,1.15E3,8E0,3E0,2E0,5.1E1,7E0,1.137E3,1.3E1,5E0,3E0,4.8E1,3E0,1E0,6E0,1.131E3,6E0,1E1,3E0,1E0,4E0,4.6E1,2E0,2E0,1E0,1E0,5E0,7.04E2,4.27E2,3E0,3E0,8E0,2E0,1E0,2E0,4.5E1,1E0,1E0,1E0],"tree_param":{"num_deleted":"0","num_feature":"2072","num_nodes":"45","size_leaf_vector":"1"}},{"base_weights":[1.9230368E-2,1.4156528E-2,1.0510885E0,2.8294487E-2,-3.0503544E-1,1.71839E-3,6.2377956E-2,3.459849E-2,-7.08321E-1,-4.3502706E-1,3.643721E-1,3.0167691E-2,5.2781194E-2,-9.4724506E-1,-1.13123536E-1,-5.1849306E-1,4.3925274E-2,-1.4382839E-2,4.818328E-1,1.0409357E-1,-2.521081E-2,-5.1701445E-2,-1.0663546E-2,-1.3726569E-2,9.277499E-3,-6.125547E-1,3.000744E-1,1.1913347E-1,5.82877E-1,4.3816743E-3,4.116816E-2,-8.8001083E-4,-6.382794E-2,-3.8431853E-2,-1.2109333E-3,-7.1959854E-3,2.2352641E-2,7.968343E-3,9.666681E-4,1.1642003E-2,3.4984272E-2],"categories":[],"categories_nodes":[],"categories_segments":[],"categories_sizes":[],"default_left":[0,0,0,0,0,0,0,0,0,0,0,0,0,0,0,0,0,0,0,0,0,0,0,0,0,0,0,0,0,0,0,0,0,0,0,0,0,0,0,0,0],"id":18,"left_children":[1,3,5,7,9,-1,-1,11,13,15,17,19,-1,21,23,25,-1,-1,27,29,31,-1,-1,-1,-1,33,35,37,39,-1,-1,-1,-1,-1,-1,-1,-1,-1,-1,-1,-1],"loss_changes":[6.419527E0,5.532203E0,1.1556582E0,5.4714804E0,4.6834154E0,0E0,0E0,5.2340403E0,1.3149137E0,5.2794514E0,8.2789254E-1,4.751553E0,0E0,2.2535181E-1,2.4377225E-1,3.4176369E0,0E0,0E0,2.2374928E-1,5.8119464E0,6.301137E0,0E0,0E0,0E0,0E0,3.4708824E0,3.906275E-1,8.964788E-3,8.2408905E-2,0E0,0E0,0E0,0E0,0E0,0E0,0E0,0E0,0E0,0E0,0E0,0E0],"parents":[2147483647,0,0,1,1,2,2,3,3,4,4,7,7,8,8,9,9,10,10,11,11,13,13,14,14,15,15,18,18,19,19,20,20,25,25,26,26,27,27,28,28],"right_children":[2,4,6,8,10,-1,-1,12,14,16,18,20,-1,22,24,26,-1,-1,28,30,32,-1,-1,-1,-1,34,36,38,40,-1,-1,-1,-1,-1,-1,-1,-1,-1,-1,-1,-1],"split_conditions":[1.126573E1,4.7555637E0,-4.851458E0,1.2349089E1,4.9581585E0,1.71839E-3,6.2377956E-2,1.7492855E1,-5.5933725E-2,1.2349089E1,6.582864E-1,-8.2364224E-2,5.2781194E-2,3.9376867E0,1.3447707E0,3.9153273E0,4.3925274E-2,-1.4382839E-2,-9.7296995E-1,8.703447E0,1.3815752E1,-5.1701445E-2,-1.0663546E-2,-1.3726569E-2,9.277499E-3,7.4734097E0,5.0959283E-1,-8.2582355E-2,6.304542E-1,4.3816743E-3,4.116816E-2,-8.8001083E-4,-6.382794E-2,-3.8431853E-2,-1.2109333E-3,-7.1959854E-3,2.2352641E-2,7.968343E-3,9.666681E-4,1.1642003E-2,3.4984272E-2],"split_indices":[430,1852,1,2020,1410,0,0,1514,2,249,21,21,0,676,1,691,0,0,15,518,654,0,0,0,0,46,7,1,1,0,0,0,0,0,0,0,0,0,0,0,0],"split_type":[0,0,0,0,0,0,0,0,0,0,0,0,0,0,0,0,0,0,0,0,0,0,0,0,0,0,0,0,0,0,0,0,0,0,0,0,0,0,0,0,0],"sum_hessian":[1.228E3,1.223E3,5E0,1.172E3,5.1E1,1E0,4E0,1.163E3,9E0,4.3E1,8E0,1.159E3,4E0,6E0,3E0,4.1E1,2E0,1E0,7E0,4.96E2,6.63E2,5E0,1E0,2E0,1E0,3.7E1,4E0,2E0,5E0,4.86E2,1E1,6.6E2,3E0,2.9E1,8E0,1E0,3E0,1E0,1E0,2E0,3E0],"tree_param":{"num_deleted":"0","num_feature":"2072","num_nodes":"41","size_leaf_vector":"1"}},{"base_weights":[1.457141E-2,9.904851E-3,9.664541E-1,4.4952547E-3,8.336302E-1,5.4432906E-2,8.885848E-3,6.792471E-4,5.821959E-2,5.8160324E-2,-1.0339912E-1,-1.4520302E-1,3.0200655E-2,-9.1484785E-3,1.3935447E-3,-1.03771485E-1,-8.6647093E-1,1.9800656E-2,5.4557055E-1,-2.0067021E-3,-3.2929618E-2,-5.212893E-2,2.2365142E-2,1.3148149E-3,-3.9203703E-2,3.3836346E-2,-4.8660018E-2],"categories":[],"categories_nodes":[],"categories_segments":[],"categories_sizes":[],"default_left":[0,0,0,0,0,0,0,0,0,0,0,0,0,0,0,0,0,0,0,0,0,0,0,0,0,0,0],"id":19,"left_children":[1,3,5,7,9,-1,-1,11,-1,-1,13,15,17,-1,-1,19,21,23,25,-1,-1,-1,-1,-1,-1,-1,-1],"loss_changes":[5.462991E0,5.4637914E0,3.848486E-1,5.399142E0,2.590856E0,0E0,0E0,5.245578E0,0E0,0E0,3.643517E-2,6.0361485E0,5.418722E0,0E0,0E0,6.858507E0,3.0113707E0,5.210969E0,4.642521E0,0E0,0E0,0E0,0E0,0E0,0E0,0E0,0E0],"parents":[2147483647,0,0,1,1,2,2,3,3,4,4,7,7,10,10,11,11,12,12,15,15,16,16,17,17,18,18],"right_children":[2,4,6,8,10,-1,-1,12,-1,-1,14,16,18,-1,-1,20,22,24,26,-1,-1,-1,-1,-1,-1,-1,-1],"split_conditions":[1.4774495E1,1.1770534E1,2.5459376E-1,1.9563997E1,1.6266779E0,5.4432906E-2,8.885848E-3,-8.898932E-1,5.821959E-2,5.8160324E-2,-4.9514437E-1,6.853375E0,6.6443253E0,-9.1484785E-3,1.3935447E-3,4.6808596E0,1.0423188E1,1.302135E1,1.9563997E1,-2.0067021E-3,-3.2929618E-2,-5.212893E-2,2.2365142E-2,1.3148149E-3,-3.9203703E-2,3.3836346E-2,-4.8660018E-2],"split_indices":[89,790,3,463,1504,0,0,10,0,0,2,2009,1188,0,0,1184,115,525,43,0,0,0,0,0,0,0,0],"split_type":[0,0,0,0,0,0,0,0,0,0,0,0,0,0,0,0,0,0,0,0,0,0,0,0,0,0,0],"sum_hessian":[1.231E3,1.226E3,5E0,1.219E3,7E0,4E0,1E0,1.216E3,3E0,5E0,2E0,2.04E2,1.012E3,1E0,1E0,1.94E2,1E1,9.93E2,1.9E1,1.75E2,1.9E1,9E0,1E0,9.86E2,7E0,1.8E1,1E0],"tree_param":{"num_deleted":"0","num_feature":"2072","num_nodes":"27","size_leaf_vector":"1"}},{"base_weights":[-2.1045433E-2,-1.4368296E-2,-6.563228E-1,-6.8038856E-3,-5.9262043E-1,-9.171225E-1,-5.5618763E-2,-1.4851221E-1,2.2999352E-2,-7.3023707E-1,1.2356528E-2,-8.09846E-3,-9.912705E-1,1.4403236E-2,-1.0677791E-2,9.590795E-3,-3.5261923E-1,1.789464E-2,5.2426506E-2,-3.2118088E-1,-1.0934103E0,-5.3677227E-2,-1.0383809E-2,1.4177054E-1,-5.305428E-1,-4.0516686E-1,3.5084698E-1,2.711835E-2,-4.6413645E-1,-4.0211302E-1,6.1336043E-3,-5.002284E-3,-1.2422967E0,1.0341972E-2,-3.0805478E-2,-7.190617E-2,-1.6620317E-2,-1.856883E-3,-2.723895E-2,2.9851992E-2,-8.82117E-3,1.0478952E-3,4.450536E-2,-3.4569357E-2,1.2102877E-3,-8.82806E-3,-2.2851078E-2,-7.6631904E-3,-7.1472526E-2],"categories":[],"categories_nodes":[],"categories_segments":[],"categories_sizes":[],"default_left":[0,0,0,0,0,0,0,0,0,0,0,0,0,0,0,0,0,0,0,0,0,0,0,0,0,0,0,0,0,0,0,0,0,0,0,0,0,0,0,0,0,0,0,0,0,0,0,0,0],"id":20,"left_children":[1,3,5,7,9,11,13,15,17,19,-1,-1,21,-1,-1,23,25,27,-1,29,31,-1,-1,33,35,37,39,41,43,45,-1,-1,47,-1,-1,-1,-1,-1,-1,-1,-1,-1,-1,-1,-1,-1,-1,-1,-1],"loss_changes":[5.3013463E0,5.419897E0,1.9856153E0,5.17704E0,2.0294828E0,3.4338236E-1,3.3291966E-1,6.8768783E0,5.2843304E0,1.7286325E0,0E0,0E0,2.9280663E-1,0E0,0E0,8.713975E0,3.5799408E0,4.4987164E0,0E0,3.3670384E-1,9.1100407E-1,0E0,0E0,4.9602494E0,3.8377533E0,4.4499464E0,1.014003E0,5.249895E0,2.1252813E0,6.000757E-3,0E0,0E0,1.0038166E0,0E0,0E0,0E0,0E0,0E0,0E0,0E0,0E0,0E0,0E0,0E0,0E0,0E0,0E0,0E0,0E0],"parents":[2147483647,0,0,1,1,2,2,3,3,4,4,5,5,6,6,7,7,8,8,9,9,12,12,15,15,16,16,17,17,19,19,20,20,23,23,24,24,25,25,26,26,27,27,28,28,29,29,32,32],"right_children":[2,4,6,8,10,12,14,16,18,20,-1,-1,22,-1,-1,24,26,28,-1,30,32,-1,-1,34,36,38,40,42,44,46,-1,-1,48,-1,-1,-1,-1,-1,-1,-1,-1,-1,-1,-1,-1,-1,-1,-1,-1],"split_conditions":[9.180293E0,8.703447E0,2.2641565E-1,-8.898932E-1,5.39426E0,-1.3211222E0,2.0835176E-1,5.3282976E-1,1.7492855E1,-3.887294E-2,1.2356528E-2,-8.09846E-3,1.2090787E0,1.4403236E-2,-1.0677791E-2,9.271278E-1,-1.6906055E-2,1.3995013E0,5.2426506E-2,4.484332E-1,-1.3600687E0,-5.3677227E-2,-1.0383809E-2,7.0828433E0,-1.5294472E0,-3.6524665E-1,-6.169153E-2,1.3599219E0,-2.375209E-1,-4.8967263E-1,6.1336043E-3,-5.002284E-3,-3.8982008E-2,1.0341972E-2,-3.0805478E-2,-7.190617E-2,-1.6620317E-2,-1.856883E-3,-2.723895E-2,2.9851992E-2,-8.82117E-3,1.0478952E-3,4.450536E-2,-3.4569357E-2,1.2102877E-3,-8.82806E-3,-2.2851078E-2,-7.6631904E-3,-7.1472526E-2],"split_indices":[1508,454,22,10,118,1,1,15,187,19,0,0,7,0,0,1,19,15,0,4,1,0,0,879,10,21,5,15,19,7,0,0,16,0,0,0,0,0,0,0,0,0,0,0,0,0,0,0,0],"split_type":[0,0,0,0,0,0,0,0,0,0,0,0,0,0,0,0,0,0,0,0,0,0,0,0,0,0,0,0,0,0,0,0,0,0,0,0,0,0,0,0,0,0,0,0,0,0,0,0,0],"sum_hessian":[1.251E3,1.239E3,1.2E1,1.224E3,1.5E1,8E0,4E0,2.12E2,1.012E3,1.3E1,2E0,1E0,7E0,1E0,3E0,1.2E2,9.2E1,1.008E3,4E0,7E0,6E0,6E0,1E0,9.7E1,2.3E1,8.6E1,6E0,9.9E2,1.8E1,6E0,1E0,1E0,5E0,9E1,7E0,3E0,2E1,2.4E1,6.2E1,4E0,2E0,9.84E2,6E0,1.2E1,6E0,2E0,4E0,1E0,4E0],"tree_param":{"num_deleted":"0","num_feature":"2072","num_nodes":"49","size_leaf_vector":"1"}},{"base_weights":[-1.1117437E-2,-2.7982192E-2,2.971016E-1,-3.9618824E-2,4.4762543E-1,3.9004743E-1,-4.0227532E-1,-4.419707E-2,5.051571E-2,6.962229E-1,-2.6089603E-1,5.023253E-1,-3.6044502E-1,-5.722968E-2,-4.791374E-2,-4.8791192E-2,5.0329454E-2,-2.7206529E-2,7.8544706E-1,5.3106964E-1,-8.422893E-1,5.710338E-1,-2.3025799E-1,-5.423948E-1,6.1801434E-3,-1.3852251E-2,1.2746699E-2,-3.424692E-2,-3.920503E-1,8.8762283E-1,1.5483832E-1,2.9431104E-3,3.3442568E-2,-4.7580976E-2,-1.0124219E-2,6.029753E-1,-2.1658374E-2,-3.2642566E-2,1.3454397E-2,-2.9743148E-2,-7.0013525E-3,-1.4466749E-3,-4.9424898E-2,-1.221838E-2,-4.496356E-2,4.6044342E-2,8.884991E-3,1.2176514E-2,-2.7809383E-3,9.6211415E-3,3.573891E-2],"categories":[],"categories_nodes":[],"categories_segments":[],"categories_sizes":[],"default_left":[0,0,0,0,0,0,0,0,0,0,0,0,0,0,0,0,0,0,0,0,0,0,0,0,0,0,0,0,0,0,0,0,0,0,0,0,0,0,0,0,0,0,0,0,0,0,0,0,0,0,0],"id":21,"left_children":[1,3,5,7,9,11,13,15,-1,17,19,21,23,25,-1,27,-1,-1,29,31,33,35,37,39,-1,-1,-1,41,43,45,47,-1,-1,-1,-1,49,-1,-1,-1,-1,-1,-1,-1,-1,-1,-1,-1,-1,-1,-1,-1],"loss_changes":[6.4122972E0,6.4875298E0,4.317174E0,5.5340805E0,5.1134677E0,4.98409E0,1.47992E0,5.5427384E0,0E0,2.7514458E0,4.130863E0,2.64822E0,7.7162087E-1,4.8233837E-1,0E0,5.648015E0,0E0,0E0,1.1512213E0,2.208761E-1,1.5706158E-1,1.7366734E0,1.2307756E0,4.3372035E-2,0E0,0E0,0E0,5.493002E0,3.2260032E0,2.3781013E-1,8.820824E-2,0E0,0E0,0E0,0E0,1.9280033E0,0E0,0E0,0E0,0E0,0E0,0E0,0E0,0E0,0E0,0E0,0E0,0E0,0E0,0E0,0E0],"parents":[2147483647,0,0,1,1,2,2,3,3,4,4,5,5,6,6,7,7,9,9,10,10,11,11,12,12,13,13,15,15,18,18,19,19,20,20,21,21,22,22,23,23,27,27,28,28,29,29,30,30,35,35],"right_children":[2,4,6,8,10,12,14,16,-1,18,20,22,24,26,-1,28,-1,-1,30,32,34,36,38,40,-1,-1,-1,42,44,46,48,-1,-1,-1,-1,50,-1,-1,-1,-1,-1,-1,-1,-1,-1,-1,-1,-1,-1,-1,-1],"split_conditions":[4.475198E0,6.1135097E0,4.4121046E0,1.7492855E1,1.2247449E0,8.107967E0,-1.15056284E-1,1.7492855E1,5.051571E-2,-1.1891584E0,-4.389811E-1,4.7555637E0,4.321977E0,-9.505959E-1,-4.791374E-2,4.9581585E0,5.0329454E-2,-2.7206529E-2,6.853375E0,-3.572732E-1,1.2090787E0,6.1135097E0,4.5696962E-1,1.1330595E0,6.1801434E-3,-1.3852251E-2,1.2746699E-2,1.4774495E1,3.2875054E0,1.59635E1,-6.911282E-1,2.9431104E-3,3.3442568E-2,-4.7580976E-2,-1.0124219E-2,-4.327635E-1,-2.1658374E-2,-3.2642566E-2,1.3454397E-2,-2.9743148E-2,-7.0013525E-3,-1.4466749E-3,-4.9424898E-2,-1.221838E-2,-4.496356E-2,4.6044342E-2,8.884991E-3,1.2176514E-2,-2.7809383E-3,9.6211415E-3,3.573891E-2],"split_indices":[717,58,2068,1514,1223,1322,12,187,0,7,20,553,1689,2,0,1855,0,0,1856,2,7,58,1,1,0,0,0,556,1333,685,1,0,0,0,0,13,0,0,0,0,0,0,0,0,0,0,0,0,0,0,0],"split_type":[0,0,0,0,0,0,0,0,0,0,0,0,0,0,0,0,0,0,0,0,0,0,0,0,0,0,0,0,0,0,0,0,0,0,0,0,0,0,0,0,0,0,0,0,0,0,0,0,0,0,0],"sum_hessian":[1.231E3,1.168E3,6.3E1,1.141E3,2.7E1,5.6E1,7E0,1.137E3,4E0,2E1,7E0,4.9E1,7E0,5E0,2E0,1.133E3,4E0,1E0,1.9E1,3E0,4E0,4.5E1,4E0,5E0,2E0,3E0,2E0,1.088E3,4.5E1,1.6E1,3E0,1E0,2E0,3E0,1E0,4.4E1,1E0,2E0,2E0,4E0,1E0,1.083E3,5E0,3.6E1,9E0,1.5E1,1E0,2E0,1E0,1E1,3.4E1],"tree_param":{"num_deleted":"0","num_feature":"2072","num_nodes":"51","size_leaf_vector":"1"}},{"base_weights":[-1.3528368E-2,-3.172032E-2,3.112957E-1,-4.3765325E-2,4.0136877E-1,4.3268046E-1,-4.785757E-1,-3.5100736E-2,-7.208093E-1,4.6567807E-1,-3.8197756E-2,4.9680543E-1,-4.3289796E-2,-4.2836957E-2,2.0831335E-1,-2.2419423E-2,-4.0892902E-1,-5.4550108E-2,-4.53852E-2,6.6187525E-1,-6.5657035E-2,5.74243E-1,-6.1472523E-1,-1.5375507E-2,4.827579E-1,-2.9098326E-2,6.195791E-1,5.769544E-1,-5.8655393E-1,-1.8765008E-2,4.0962982E-1,2.122972E-1,9.0361285E-1,-3.0736892E-2,1.7904289E-1,4.9776325E-1,6.7421995E-2,-2.9466988E-3,-3.9017215E-2,2.9190421E-2,7.0164204E-3,-1.7725924E-3,3.1887736E-2,1.711972E-2,4.4186085E-2,6.8464996E-3,3.187867E-2,-3.6652185E-2,5.1251598E-2,5.702281E-3,2.5019957E-2,-1.5116318E-3,3.537172E-2,4.7323328E-2,8.662867E-3,1.2790496E-2,-7.038987E-3,1.4144756E-2,3.3434708E-2],"categories":[],"categories_nodes":[],"categories_segments":[],"categories_sizes":[],"default_left":[0,0,0,0,0,0,0,0,0,0,0,0,0,0,0,0,0,0,0,0,0,0,0,0,0,0,0,0,0,0,0,0,0,0,0,0,0,0,0,0,0,0,0,0,0,0,0,0,0,0,0,0,0,0,0,0,0,0,0],"id":22,"left_children":[1,3,5,7,9,11,13,15,17,19,-1,21,-1,-1,23,25,27,-1,29,31,33,35,37,-1,39,41,43,45,47,-1,49,51,53,-1,55,57,-1,-1,-1,-1,-1,-1,-1,-1,-1,-1,-1,-1,-1,-1,-1,-1,-1,-1,-1,-1,-1,-1,-1],"loss_changes":[7.130442E0,5.9748755E0,6.343285E0,6.4980316E0,2.6789331E0,5.0929594E0,2.5162766E0,5.200788E0,3.451004E0,3.1708503E0,0E0,5.001013E0,0E0,0E0,7.1471274E-1,4.5802965E0,6.642643E0,0E0,1.0544317E0,2.1991243E0,1.3193046E0,2.348528E0,3.2220984E-1,0E0,2.188313E-2,4.4882665E0,5.027976E-1,7.273984E-2,8.0699E0,0E0,2.3421526E-2,1.1021575E0,2.7419567E-1,0E0,2.0787576E-1,1.5737543E0,0E0,0E0,0E0,0E0,0E0,0E0,0E0,0E0,0E0,0E0,0E0,0E0,0E0,0E0,0E0,0E0,0E0,0E0,0E0,0E0,0E0,0E0,0E0],"parents":[2147483647,0,0,1,1,2,2,3,3,4,4,5,5,6,6,7,7,8,8,9,9,11,11,14,14,15,15,16,16,18,18,19,19,20,20,21,21,22,22,24,24,25,25,26,26,27,27,28,28,30,30,31,31,32,32,34,34,35,35],"right_children":[2,4,6,8,10,12,14,16,18,20,-1,22,-1,-1,24,26,28,-1,30,32,34,36,38,-1,40,42,44,46,48,-1,50,52,54,-1,56,58,-1,-1,-1,-1,-1,-1,-1,-1,-1,-1,-1,-1,-1,-1,-1,-1,-1,-1,-1,-1,-1,-1,-1],"split_conditions":[2.0849924E0,6.853375E0,6.2765226E0,9.7435875E0,1.302135E1,1.1770534E1,5.75595E-1,5.2879357E0,3.20992E-2,1.7341557E-1,-3.8197756E-2,6.4528203E0,-4.3289796E-2,-4.2836957E-2,-1.5248541E0,1.0820209E1,-2.6286808E-1,-5.4550108E-2,1.4774495E1,-8.301837E-1,4.920117E-1,1.1795446E0,-8.198912E-1,-1.5375507E-2,-1.0718893E0,1.1770534E1,1.9010854E-1,-1.1323386E0,1.59635E1,-1.8765008E-2,-3.9847562E-1,2.3286464E0,1.59635E1,-3.0736892E-2,3.471794E-1,-2.015723E-1,6.7421995E-2,-2.9466988E-3,-3.9017215E-2,2.9190421E-2,7.0164204E-3,-1.7725924E-3,3.1887736E-2,1.711972E-2,4.4186085E-2,6.8464996E-3,3.187867E-2,-3.6652185E-2,5.1251598E-2,5.702281E-3,2.5019957E-2,-1.5116318E-3,3.537172E-2,4.7323328E-2,8.662867E-3,1.2790496E-2,-7.038987E-3,1.4144756E-2,3.3434708E-2],"split_indices":[16,1133,1761,1527,133,1554,1081,85,10,16,0,752,0,0,1,2053,18,0,841,15,16,15,0,0,0,1678,22,22,891,0,0,1762,685,0,1,2,0,0,0,0,0,0,0,0,0,0,0,0,0,0,0,0,0,0,0,0,0,0,0],"split_type":[0,0,0,0,0,0,0,0,0,0,0,0,0,0,0,0,0,0,0,0,0,0,0,0,0,0,0,0,0,0,0,0,0,0,0,0,0,0,0,0,0,0,0,0,0,0,0,0,0,0,0,0,0,0,0,0,0,0,0],"sum_hessian":[1.204E3,1.141E3,6.3E1,1.111E3,3E1,5.5E1,8E0,1.098E3,1.3E1,2.9E1,1E0,5.3E1,2E0,5E0,3E0,1.063E3,3.5E1,8E0,5E0,2.1E1,8E0,5E1,3E0,1E0,2E0,1.053E3,1E1,5E0,3E1,3E0,2E0,8E0,1.3E1,2E0,6E0,4.7E1,3E0,1E0,2E0,1E0,1E0,1.044E3,9E0,6E0,4E0,1E0,4E0,2.8E1,2E0,1E0,1E0,6E0,2E0,1.2E1,1E0,5E0,1E0,2.2E1,2.5E1],"tree_param":{"num_deleted":"0","num_feature":"2072","num_nodes":"59","size_leaf_vector":"1"}},{"base_weights":[-1.1420943E-2,-1.6579108E-2,1.0539246E0,-2.831598E-2,3.7576252E-1,5.9340145E-2,9.738326E-3,-1.7841714E-2,-5.207308E-1,2.9221815E-1,4.855315E-2,-2.1860385E-2,9.2931056E-1,-5.9415424E-1,1.0787948E-2,3.3303243E-1,-2.5345994E-2,-1.0627876E-2,-3.981672E-1,5.329119E-2,9.581447E-3,-7.020611E-1,9.39188E-2,3.881932E-1,-1.6479285E-2,-8.4641215E-4,3.1906527E-2,-2.7338687E-2,4.2653766E-2,-3.959953E-2,-7.217282E-3,2.4394453E-2,-1.0001715E-2,9.189743E-3,2.6684318E-2],"categories":[],"categories_nodes":[],"categories_segments":[],"categories_sizes":[],"default_left":[0,0,0,0,0,0,0,0,0,0,0,0,0,0,0,0,0,0,0,0,0,0,0,0,0,0,0,0,0,0,0,0,0,0,0],"id":23,"left_children":[1,3,5,7,9,-1,-1,11,13,15,-1,17,19,21,-1,23,-1,25,27,-1,-1,29,31,33,-1,-1,-1,-1,-1,-1,-1,-1,-1,-1,-1],"loss_changes":[6.8425474E0,5.7068563E0,4.5383167E-1,6.1902456E0,1.5066624E0,0E0,0E0,4.5041285E0,1.4800849E0,1.2451575E0,0E0,4.958113E0,2.9927397E-1,1.7736359E0,0E0,1.2975588E0,0E0,4.6745434E0,6.7884936E0,0E0,0E0,8.887806E-1,5.6082964E-1,7.9406834E-1,0E0,0E0,0E0,0E0,0E0,0E0,0E0,0E0,0E0,0E0,0E0],"parents":[2147483647,0,0,1,1,2,2,3,3,4,4,7,7,8,8,9,9,11,11,12,12,13,13,15,15,17,17,18,18,21,21,22,22,23,23],"right_children":[2,4,6,8,10,-1,-1,12,14,16,-1,18,20,22,-1,24,-1,26,28,-1,-1,30,32,34,-1,-1,-1,-1,-1,-1,-1,-1,-1,-1,-1],"split_conditions":[1.59635E1,5.506953E0,6.748502E-1,5.8904734E0,4.1047335E0,5.9340145E-2,9.738326E-3,1.9563997E1,1.7492855E1,5.137338E-1,4.855315E-2,5.34034E0,5.413621E-1,9.180293E0,1.0787948E-2,2.2890692E0,-2.5345994E-2,1.0820209E1,6.3628993E0,5.329119E-2,9.581447E-3,3.3408907E-1,-9.7447455E-2,-2.339613E-1,-1.6479285E-2,-8.4641215E-4,3.1906527E-2,-2.7338687E-2,4.2653766E-2,-3.959953E-2,-7.217282E-3,2.4394453E-2,-1.0001715E-2,9.189743E-3,2.6684318E-2],"split_indices":[781,405,1,2046,231,0,0,872,1683,2,0,1336,1,1522,0,1281,0,119,1840,0,0,17,0,19,0,0,0,0,0,0,0,0,0,0,0],"split_type":[0,0,0,0,0,0,0,0,0,0,0,0,0,0,0,0,0,0,0,0,0,0,0,0,0,0,0,0,0,0,0,0,0,0,0],"sum_hessian":[1.241E3,1.236E3,5E0,1.201E3,3.5E1,4E0,1E0,1.177E3,2.4E1,3.2E1,3E0,1.173E3,4E0,2.2E1,2E0,3.1E1,1E0,1.14E3,3.3E1,3E0,1E0,1.9E1,3E0,2.9E1,2E0,1.13E3,1E1,3E1,3E0,1.6E1,3E0,1E0,2E0,1.3E1,1.6E1],"tree_param":{"num_deleted":"0","num_feature":"2072","num_nodes":"35","size_leaf_vector":"1"}},{"base_weights":[-8.674291E-3,-1.6226444E-2,6.5060097E-1,1.8188103E-1,-4.081548E-2,8.268594E-1,3.2401085E-3,-1.0845587E-2,4.5395687E-1,-2.2466464E-1,-5.050258E-3,1.9327624E-1,9.461805E-1,7.893213E-3,-1.1515808E-2,-6.0645804E-2,9.5052E-1,5.273026E-1,-5.087928E-2,-2.7433896E-1,6.323303E-1,4.1116345E-1,-2.4136838E-2,1.1797977E-2,2.697742E-3,2.5148302E-2,6.000794E-2,-1.0962792E-1,5.3724724E-1,5.3703826E-2,1.4496255E-2,6.592783E-1,1.0447879E-2,-1.8137476E-1,-6.3539267E-1,4.821062E-3,9.0057415E-1,4.8928487E-1,-4.1425073E-1,-4.7863692E-2,3.0968255E-1,-3.650464E-3,-4.6376016E-2,3.3884526E-3,4.9206786E-2,3.699534E-2,-1.5591306E-2,2.3156663E-2,-3.5796914E-2,-1.0826372E-2,3.052477E-2,-3.4764994E-2,3.353859E-2,-1.5656186E-2,1.0758861E-2,4.8299458E-2,1.2702095E-2,2.7829513E-2,-2.2951977E-2,7.0483447E-3,-3.231561E-2,-1.8746511E-3,-2.9923335E-2,-4.023356E-3,2.3670726E-2],"categories":[],"categories_nodes":[],"categories_segments":[],"categories_sizes":[],"default_left":[0,0,0,0,0,0,0,0,0,0,0,0,0,0,0,0,0,0,0,0,0,0,0,0,0,0,0,0,0,0,0,0,0,0,0,0,0,0,0,0,0,0,0,0,0,0,0,0,0,0,0,0,0,0,0,0,0,0,0,0,0,0,0,0,0],"id":24,"left_children":[1,3,5,7,9,11,13,15,17,19,21,23,25,-1,-1,27,29,31,-1,33,35,37,39,-1,-1,-1,-1,41,43,-1,-1,45,47,49,51,53,55,57,59,61,63,-1,-1,-1,-1,-1,-1,-1,-1,-1,-1,-1,-1,-1,-1,-1,-1,-1,-1,-1,-1,-1,-1,-1,-1],"loss_changes":[6.1545787E0,5.955246E0,1.59476E0,7.083818E0,7.1463327E0,6.487241E-1,1.8081245E-1,3.887742E0,6.5807333E0,7.708476E0,7.246995E0,5.1089227E-3,4.0946293E-1,0E0,0E0,2.3139243E0,1.50818825E-2,3.6765747E0,0E0,5.5236874E0,1.6789126E0,2.781989E0,6.921484E0,0E0,0E0,0E0,0E0,2.0886903E0,1.1921326E0,0E0,0E0,3.5975647E0,4.2774673E0,3.8900957E0,3.1268387E0,3.3490363E-1,5.0649166E-2,2.6171074E0,6.064871E-1,4.6313124E0,3.7431335E0,0E0,0E0,0E0,0E0,0E0,0E0,0E0,0E0,0E0,0E0,0E0,0E0,0E0,0E0,0E0,0E0,0E0,0E0,0E0,0E0,0E0,0E0,0E0,0E0],"parents":[2147483647,0,0,1,1,2,2,3,3,4,4,5,5,6,6,7,7,8,8,9,9,10,10,11,11,12,12,15,15,16,16,17,17,19,19,20,20,21,21,22,22,27,27,28,28,31,31,32,32,33,33,34,34,35,35,36,36,37,37,38,38,39,39,40,40],"right_children":[2,4,6,8,10,12,14,16,18,20,22,24,26,-1,-1,28,30,32,-1,34,36,38,40,-1,-1,-1,-1,42,44,-1,-1,46,48,50,52,54,56,58,60,62,64,-1,-1,-1,-1,-1,-1,-1,-1,-1,-1,-1,-1,-1,-1,-1,-1,-1,-1,-1,-1,-1,-1,-1,-1],"split_conditions":[8.932495E0,-9.893054E-1,7.771744E0,-3.0443722E-1,-8.898932E-1,7.674809E-1,2.604054E-1,1.0066446E1,8.107967E0,5.626684E0,-8.170016E-1,-1.938049E-1,1.9597688E-1,7.893213E-3,-1.1515808E-2,1.8591116E-1,-7.562562E-1,8.4118205E-1,-5.087928E-2,2.0632133E0,-2.787392E-1,1.302135E1,3.748202E0,1.1797977E-2,2.697742E-3,2.5148302E-2,6.000794E-2,3.6531897E0,-3.7910977E-1,5.3703826E-2,1.4496255E-2,5.0921335E0,-5.410953E-1,3.2334538E0,1.4774495E1,-2.88186E-1,9.0459925E-1,1.0820209E1,-5.636386E-1,8.2929325E0,-3.8008565E-1,-3.650464E-3,-4.6376016E-2,3.3884526E-3,4.9206786E-2,3.699534E-2,-1.5591306E-2,2.3156663E-2,-3.5796914E-2,-1.0826372E-2,3.052477E-2,-3.4764994E-2,3.353859E-2,-1.5656186E-2,1.0758861E-2,4.8299458E-2,1.2702095E-2,2.7829513E-2,-2.2951977E-2,7.0483447E-3,-3.231561E-2,-1.8746511E-3,-2.9923335E-2,-4.023356E-3,2.3670726E-2],"split_indices":[1742,8,1871,17,10,950,5,511,2042,472,10,2,2,0,0,15,15,20,0,1138,13,1854,1481,0,0,0,0,1409,17,0,0,374,10,571,89,3,5,1618,2,301,10,0,0,0,0,0,0,0,0,0,0,0,0,0,0,0,0,0,0,0,0,0,0,0,0],"split_type":[0,0,0,0,0,0,0,0,0,0,0,0,0,0,0,0,0,0,0,0,0,0,0,0,0,0,0,0,0,0,0,0,0,0,0,0,0,0,0,0,0,0,0,0,0,0,0,0,0,0,0,0,0,0,0,0,0,0,0,0,0,0,0,0,0],"sum_hessian":[1.233E3,1.22E3,1.3E1,1.34E2,1.086E3,1E1,3E0,7.9E1,5.5E1,1.76E2,9.1E2,2E0,8E0,2E0,1E0,7.6E1,3E0,5.3E1,2E0,1.67E2,9E0,3.9E1,8.71E2,1E0,1E0,4E0,4E0,7.1E1,5E0,2E0,1E0,4.2E1,1.1E1,1.34E2,3.3E1,3E0,6E0,3.6E1,3E0,8.14E2,5.7E1,6.9E1,2E0,3E0,2E0,3.9E1,3E0,7E0,4E0,1.29E2,5E0,3.2E1,1E0,1E0,2E0,5E0,1E0,3.4E1,2E0,1E0,2E0,8E2,1.4E1,1.7E1,4E1],"tree_param":{"num_deleted":"0","num_feature":"2072","num_nodes":"65","size_leaf_vector":"1"}},{"base_weights":[-9.483381E-3,-1.6339136E-2,6.0331494E-1,-1.9973047E-2,5.603087E-2,-1.2732863E-2,7.724855E-1,-2.8200157E-2,4.8617017E-1,3.8233758E-3,-6.7955494E-2,4.9907867E-2,2.0903306E-2,-3.6163624E-2,5.0913095E-1,6.113817E-1,-4.7321226E-2,-4.671836E-3,-4.2482614E-4,-4.1034102E-2,8.074204E-1,1.1243231E0,2.5305295E-1,6.959249E-1,-7.149029E-2,-2.2277513E-3,5.136305E-2,-1.865228E-5,5.653062E-2,6.1728466E-2,1.7083466E-2,2.3177596E-2,-1.0927777E-2,3.8462717E-2,4.865138E-3,1.3799787E-3,-6.7417505E-3],"categories":[],"categories_nodes":[],"categories_segments":[],"categories_sizes":[],"default_left":[0,0,0,0,0,0,0,0,0,0,0,0,0,0,0,0,0,0,0,0,0,0,0,0,0,0,0,0,0,0,0,0,0,0,0,0,0],"id":25,"left_children":[1,3,5,7,-1,9,11,13,15,-1,17,-1,-1,19,21,23,-1,-1,-1,25,27,29,31,33,35,-1,-1,-1,-1,-1,-1,-1,-1,-1,-1,-1,-1],"loss_changes":[5.3159666E0,5.18688E0,1.4688759E0,5.206338E0,0E0,2.4899906E-2,4.6251202E-1,5.2730465E0,4.1661735E0,0E0,3.751373E-3,0E0,0E0,5.008714E0,2.551156E0,1.1466627E0,0E0,0E0,0E0,4.578235E0,1.8279285E0,9.608269E-3,1.4911354E0,6.713915E-1,2.2551846E-2,0E0,0E0,0E0,0E0,0E0,0E0,0E0,0E0,0E0,0E0,0E0,0E0],"parents":[2147483647,0,0,1,1,2,2,3,3,5,5,6,6,7,7,8,8,10,10,13,13,14,14,15,15,19,19,20,20,21,21,22,22,23,23,24,24],"right_children":[2,4,6,8,-1,10,12,14,16,-1,18,-1,-1,20,22,24,-1,-1,-1,26,28,30,32,34,36,-1,-1,-1,-1,-1,-1,-1,-1,-1,-1,-1,-1],"split_conditions":[9.449556E0,1.9563997E1,-2.8870448E-1,8.490891E0,5.603087E-2,-9.457117E-1,2.0976508E-1,8.703447E0,1.126573E1,3.8233758E-3,-4.2642483E-1,4.9907867E-2,2.0903306E-2,1.59635E1,1.1940967E-1,2.192987E0,-4.7321226E-2,-4.671836E-3,-4.2482614E-4,1.9563997E1,-7.3044276E-1,2.4647771E-1,7.327523E-1,1.0820209E1,1.2618701E0,-2.2277513E-3,5.136305E-2,-1.865228E-5,5.653062E-2,6.1728466E-2,1.7083466E-2,2.3177596E-2,-1.0927777E-2,3.8462717E-2,4.865138E-3,1.3799787E-3,-6.7417505E-3],"split_indices":[783,463,20,353,0,0,10,518,160,0,0,0,0,781,1,5,0,0,0,872,10,0,15,1425,0,0,0,0,0,0,0,0,0,0,0,0,0],"split_type":[0,0,0,0,0,0,0,0,0,0,0,0,0,0,0,0,0,0,0,0,0,0,0,0,0,0,0,0,0,0,0,0,0,0,0,0,0],"sum_hessian":[1.262E3,1.249E3,1.3E1,1.246E3,3E0,3E0,1E1,1.227E3,1.9E1,1E0,2E0,5E0,5E0,1.21E3,1.7E1,1.8E1,1E0,1E0,1E0,1.204E3,6E0,4E0,1.3E1,1.6E1,2E0,1.201E3,3E0,2E0,4E0,3E0,1E0,9E0,4E0,1.4E1,2E0,1E0,1E0],"tree_param":{"num_deleted":"0","num_feature":"2072","num_nodes":"37","size_leaf_vector":"1"}},{"base_weights":[-9.055711E-3,6.7448355E-2,-7.674119E-2,5.5509936E-2,1.018003E0,-8.732982E-2,7.7464783E-1,4.0339198E-2,6.9424593E-1,4.9793243E-2,6.976642E-2,-9.5124476E-2,4.5769032E-2,4.368372E-2,1.5918946E-2,3.1844508E-2,9.615902E-1,7.9677224E-1,-1.3401759E-2,-1.698041E-3,5.4325345E-3,-1.0194712E-1,5.0075885E-2,2.4327194E-2,5.2311916E-2,-8.8795426E-4,6.0543366E-2,9.287449E-1,9.1272675E-2,-1.14541814E-1,5.036586E-1,2.1615094E-3,-3.0108673E-2,4.9206313E-2,1.0757816E-2,8.060944E-3,-1.2154937E-3,-6.2202653E-3,3.2593336E-2,-2.4879871E-2,5.0197493E-2],"categories":[],"categories_nodes":[],"categories_segments":[],"categories_sizes":[],"default_left":[0,0,0,0,0,0,0,0,0,0,0,0,0,0,0,0,0,0,0,0,0,0,0,0,0,0,0,0,0,0,0,0,0,0,0,0,0,0,0,0,0],"id":26,"left_children":[1,3,5,7,9,11,13,15,17,19,-1,21,-1,-1,-1,23,25,27,-1,-1,-1,29,-1,31,-1,-1,-1,33,35,37,39,-1,-1,-1,-1,-1,-1,-1,-1,-1,-1],"loss_changes":[6.2759933E0,6.400572E0,5.8643255E0,5.4275193E0,2.487832E0,5.057913E0,8.330202E-2,4.2813616E0,1.4961324E0,1.8478515E-2,0E0,4.8307257E0,0E0,0E0,0E0,4.145706E0,1.2421508E0,1.0325108E0,0E0,0E0,0E0,4.8553367E0,0E0,6.468482E0,0E0,0E0,0E0,1.8345451E-1,2.8172895E-2,4.745281E0,7.0115185E0,0E0,0E0,0E0,0E0,0E0,0E0,0E0,0E0,0E0,0E0],"parents":[2147483647,0,0,1,1,2,2,3,3,4,4,5,5,6,6,7,7,8,8,9,9,11,11,15,15,16,16,17,17,21,21,23,23,27,27,28,28,29,29,30,30],"right_children":[2,4,6,8,10,12,14,16,18,20,-1,22,-1,-1,-1,24,26,28,-1,-1,-1,30,-1,32,-1,-1,-1,34,36,38,40,-1,-1,-1,-1,-1,-1,-1,-1,-1,-1],"split_conditions":[2.4959553E-2,7.0828433E0,1.0423188E1,7.771744E0,-1.1104301E0,9.7435875E0,1.6988455E0,1.3815752E1,1.0820209E1,-5.966896E-1,6.976642E-2,1.59635E1,4.5769032E-2,4.368372E-2,1.5918946E-2,1.7492855E1,-5.1804394E-1,-1.8139312E-1,-1.3401759E-2,-1.698041E-3,5.4325345E-3,6.6443253E0,5.0075885E-2,6.965352E0,5.2311916E-2,-8.8795426E-4,6.0543366E-2,-1.813426E-1,-9.7447455E-2,8.2929325E0,3.1086808E-2,2.1615094E-3,-3.0108673E-2,4.9206313E-2,1.0757816E-2,8.060944E-3,-1.2154937E-3,-6.2202653E-3,3.2593336E-2,-2.4879871E-2,5.0197493E-2],"split_indices":[21,1782,487,979,21,316,402,1057,1037,0,0,1021,0,0,0,327,0,0,0,0,0,2019,0,1606,0,0,0,4,0,129,17,0,0,0,0,0,0,0,0,0,0],"split_type":[0,0,0,0,0,0,0,0,0,0,0,0,0,0,0,0,0,0,0,0,0,0,0,0,0,0,0,0,0,0,0,0,0,0,0,0,0,0,0,0,0],"sum_hessian":[1.21E3,5.68E2,6.42E2,5.62E2,6E0,6.35E2,7E0,5.5E2,1.2E1,2E0,4E0,6.31E2,4E0,5E0,2E0,5.46E2,4E0,1.1E1,1E0,1E0,1E0,6.28E2,3E0,5.43E2,3E0,1E0,3E0,9E0,2E0,6.16E2,1.2E1,5.28E2,1.5E1,8E0,1E0,1E0,1E0,6.09E2,7E0,4E0,8E0],"tree_param":{"num_deleted":"0","num_feature":"2072","num_nodes":"41","size_leaf_vector":"1"}},{"base_weights":[-8.535385E-3,-1.8653022E-2,4.7004586E-1,-1.4107559E-2,-9.428189E-1,6.9713914E-1,-2.4594156E-1,-1.8451853E-2,8.708594E-1,-5.166241E-2,-1.2266803E-2,-2.5357604E-2,8.261302E-1,-2.7827144E-2,1.2614512E-1,5.3229786E-2,-2.1999335E-2,5.024783E-2,5.0093294E-3,9.896716E-3,-1.7380834E-2,9.114597E-1,1.2410625E-1,9.851496E-3,-2.1627308E-3,-3.4103832E-1,-9.730774E-3,9.552525E-1,7.458985E-3,9.000993E-3,3.0697585E-4,-1.1860393E-2,-4.882008E-2,2.4072637E-3,-4.107024E-3,5.216251E-2,2.3722297E-2],"categories":[],"categories_nodes":[],"categories_segments":[],"categories_sizes":[],"default_left":[0,0,0,0,0,0,0,0,0,0,0,0,0,0,0,0,0,0,0,0,0,0,0,0,0,0,0,0,0,0,0,0,0,0,0,0,0],"id":27,"left_children":[1,3,5,7,9,11,13,15,17,-1,-1,19,21,-1,23,-1,25,-1,-1,-1,-1,27,29,-1,-1,31,33,35,-1,-1,-1,-1,-1,-1,-1,-1,-1],"loss_changes":[6.080776E0,5.1494365E0,4.3989496E0,4.721806E0,1.2494469E-1,1.884861E0,8.791995E-1,4.70693E0,5.193877E-1,0E0,0E0,3.5663664E-1,9.052391E-1,0E0,5.65539E-2,0E0,4.756286E0,0E0,0E0,0E0,0E0,3.5823154E-1,1.8682603E-2,0E0,0E0,2.737042E0,4.915558E0,9.7372055E-2,0E0,0E0,0E0,0E0,0E0,0E0,0E0,0E0,0E0],"parents":[2147483647,0,0,1,1,2,2,3,3,4,4,5,5,6,6,7,7,8,8,11,11,12,12,14,14,16,16,21,21,22,22,25,25,26,26,27,27],"right_children":[2,4,6,8,10,12,14,16,18,-1,-1,20,22,-1,24,-1,26,-1,-1,-1,-1,28,30,-1,-1,32,34,36,-1,-1,-1,-1,-1,-1,-1,-1,-1],"split_conditions":[6.853375E0,1.302135E1,1.7341557E-1,2.8521564E0,4.5664993E-1,-7.0588535E-1,4.9201182E-1,-1.9885708E0,1.8709418E0,-5.166241E-2,-1.2266803E-2,-1.7445887E0,1.1195607E0,-2.7827144E-2,-9.033468E-1,5.3229786E-2,-1.408519E0,5.024783E-2,5.0093294E-3,9.896716E-3,-1.7380834E-2,1.59635E1,1.1571026E0,9.851496E-3,-2.1627308E-3,7.674809E-1,4.2725697E-2,2.9838274E0,7.458985E-3,9.000993E-3,3.0697585E-4,-1.1860393E-2,-4.882008E-2,2.4072637E-3,-4.107024E-3,5.216251E-2,2.3722297E-2],"split_indices":[1133,457,16,1,0,5,16,7,0,0,0,0,1,0,0,0,0,0,0,0,0,685,0,0,0,950,0,1879,0,0,0,0,0,0,0,0,0],"split_type":[0,0,0,0,0,0,0,0,0,0,0,0,0,0,0,0,0,0,0,0,0,0,0,0,0,0,0,0,0,0,0,0,0,0,0,0,0],"sum_hessian":[1.253E3,1.228E3,2.5E1,1.223E3,5E0,1.9E1,6E0,1.218E3,5E0,4E0,1E0,3E0,1.6E1,3E0,3E0,3E0,1.215E3,4E0,1E0,2E0,1E0,1.4E1,2E0,2E0,1E0,4.4E1,1.171E3,1.3E1,1E0,1E0,1E0,3.9E1,5E0,6.51E2,5.2E2,1E1,3E0],"tree_param":{"num_deleted":"0","num_feature":"2072","num_nodes":"37","size_leaf_vector":"1"}},{"base_weights":[1.6338704E-2,2.246581E-2,-7.2361153E-1,9.846341E-3,3.8976172E-1,-6.132661E-2,2.4615575E-2,-4.785118E-3,3.365162E-1,4.895206E-1,-6.304486E-1,3.187988E-2,-1.4401466E-2,1.3674892E-3,-7.623914E-1,6.8877196E-1,7.871999E-2,7.128341E-1,-3.511868E-2,-3.5593607E-2,-9.65445E-3,-2.9283373E-3,4.7523584E-2,4.4255257E-3,-4.910571E-2,3.6253327E-1,1.1735932E0,-3.303996E-1,5.0986624E-1,8.03921E-1,-3.9108466E-2,-2.586676E-1,4.76646E-1,-3.952379E-4,3.8939398E-2,-1.5389443E-3,1.8708587E-3,4.409042E-2,3.3321192E-3,6.359058E-2,1.2151587E-2,-3.307202E-2,-3.2815528E-3,-1.4440878E-2,3.2747872E-2,1.498049E-2,5.118099E-2,1.8691898E-3,-1.5017348E-2,3.848999E-2,-1.0070384E-2],"categories":[],"categories_nodes":[],"categories_segments":[],"categories_sizes":[],"default_left":[0,0,0,0,0,0,0,0,0,0,0,0,0,0,0,0,0,0,0,0,0,0,0,0,0,0,0,0,0,0,0,0,0,0,0,0,0,0,0,0,0,0,0,0,0,0,0,0,0,0,0],"id":28,"left_children":[1,3,5,7,9,-1,11,13,15,17,19,-1,-1,21,23,25,27,29,31,-1,-1,33,-1,35,-1,37,39,41,43,45,-1,47,49,-1,-1,-1,-1,-1,-1,-1,-1,-1,-1,-1,-1,-1,-1,-1,-1,-1,-1],"loss_changes":[5.5202336E0,5.5814333E0,3.7931814E0,5.57469E0,4.3796196E0,0E0,1.1418753E0,5.2076635E0,4.48629E0,4.3599176E0,4.990697E-3,0E0,0E0,4.5243835E0,1.5207305E0,2.8960495E0,5.4601707E0,4.169359E0,1.4961461E0,0E0,0E0,4.304771E0,0E0,4.6360134E-3,0E0,2.092317E0,4.220953E-1,1.3589764E0,1.9273927E0,2.4632263E0,0E0,1.2228125E-1,9.5013964E-1,0E0,0E0,0E0,0E0,0E0,0E0,0E0,0E0,0E0,0E0,0E0,0E0,0E0,0E0,0E0,0E0,0E0,0E0],"parents":[2147483647,0,0,1,1,2,2,3,3,4,4,6,6,7,7,8,8,9,9,10,10,13,13,14,14,15,15,16,16,17,17,18,18,21,21,23,23,25,25,26,26,27,27,28,28,29,29,31,31,32,32],"right_children":[2,4,6,8,10,-1,12,14,16,18,20,-1,-1,22,24,26,28,30,32,-1,-1,34,-1,36,-1,38,40,42,44,46,-1,48,50,-1,-1,-1,-1,-1,-1,-1,-1,-1,-1,-1,-1,-1,-1,-1,-1,-1,-1],"split_conditions":[1.0820209E1,5.506953E0,-2.5336716E-1,4.9581585E0,1.2247449E0,-6.132661E-2,-2.0069018E-2,1.2349089E1,-2.7960044E-1,5.4497705E0,1.0135338E0,3.187988E-2,-1.4401466E-2,1.7492855E1,-1.5022634E-1,-4.6159238E-1,1.9031368E-1,1.0066446E1,2.192987E0,-3.5593607E-2,-9.65445E-3,1.59635E1,4.7523584E-2,-3.635601E-1,-4.910571E-2,-3.8378847E-1,1.5373999E-1,5.53511E-1,-1.1843037E-1,6.592264E-1,-3.9108466E-2,-2.6948683E0,-6.14935E-1,-3.952379E-4,3.8939398E-2,-1.5389443E-3,1.8708587E-3,4.409042E-2,3.3321192E-3,6.359058E-2,1.2151587E-2,-3.307202E-2,-3.2815528E-3,-1.4440878E-2,3.2747872E-2,1.498049E-2,5.118099E-2,1.8691898E-3,-1.5017348E-2,3.848999E-2,-1.0070384E-2],"split_indices":[1172,1405,1,1267,1223,0,0,1940,0,1788,0,0,0,1514,1,0,21,149,5,0,0,781,0,0,0,5,17,1,0,104,0,15,1,0,0,0,0,0,0,0,0,0,0,0,0,0,0,0,0,0,0],"split_type":[0,0,0,0,0,0,0,0,0,0,0,0,0,0,0,0,0,0,0,0,0,0,0,0,0,0,0,0,0,0,0,0,0,0,0,0,0,0,0,0,0,0,0,0,0,0,0,0,0,0,0],"sum_hessian":[1.213E3,1.204E3,9E0,1.165E3,3.9E1,5E0,4E0,1.116E3,4.9E1,3.6E1,3E0,1E0,3E0,1.108E3,8E0,2E1,2.9E1,2.5E1,1.1E1,2E0,1E0,1.104E3,4E0,2E0,6E0,1.3E1,7E0,1.5E1,1.4E1,2.4E1,1E0,8E0,3E0,1.098E3,6E0,1E0,1E0,4E0,9E0,6E0,1E0,6E0,9E0,2E0,1.2E1,8E0,1.6E1,1E0,7E0,2E0,1E0],"tree_param":{"num_deleted":"0","num_feature":"2072","num_nodes":"51","size_leaf_vector":"1"}},{"base_weights":[5.155593E-3,9.48103E-3,-1.059068E0,-2.5838348E-3,3.7768033E-1,-1.5120697E-2,-5.8631398E-2,-2.000868E-2,2.3332056E-1,1.7431363E-1,7.283842E-1,-1.2672794E-2,-9.160239E-1,-1.808121E-1,4.2882526E-1,-3.887371E-2,2.4348411E-1,8.91816E-1,-8.406902E-3,-1.9678604E-2,6.253281E-1,-1.0436102E0,2.616668E-3,-3.9868873E-2,-4.9063426E-2,5.2354866E-1,-4.4779477E-1,4.490687E-1,1.916999E-2,9.5967203E-1,3.6350011E-3,-5.997869E-4,-3.5474833E-2,-2.9301798E-2,3.9436407E-2,-5.8773108E-2,-3.0161738E-3,3.9903607E-2,-7.616067E-3,3.7736118E-2,1.4505413E-2,-3.2794E-2,-1.0541439E-3,9.071218E-3,4.2050738E-2,-6.057316E-3,1.0153171E-2,5.104216E-2,8.699012E-3],"categories":[],"categories_nodes":[],"categories_segments":[],"categories_sizes":[],"default_left":[0,0,0,0,0,0,0,0,0,0,0,0,0,0,0,0,0,0,0,0,0,0,0,0,0,0,0,0,0,0,0,0,0,0,0,0,0,0,0,0,0,0,0,0,0,0,0,0,0],"id":29,"left_children":[1,3,5,7,9,-1,-1,11,13,15,17,19,21,23,25,-1,27,29,-1,31,33,35,-1,37,-1,39,41,43,45,47,-1,-1,-1,-1,-1,-1,-1,-1,-1,-1,-1,-1,-1,-1,-1,-1,-1,-1,-1],"loss_changes":[5.6858253E0,5.460531E0,7.5009346E-2,4.9003906E0,2.654571E0,0E0,0E0,7.284493E0,6.7166553E0,1.9010288E0,2.2012324E0,4.9379287E0,1.1665587E0,3.006989E0,4.8844843E0,0E0,1.1442795E0,5.9721565E-1,0E0,5.7735486E0,2.8374653E0,9.662781E-1,0E0,2.3830483E0,0E0,2.5332794E0,5.1892686E-1,1.2111473E0,3.600426E-1,3.5107136E-1,0E0,0E0,0E0,0E0,0E0,0E0,0E0,0E0,0E0,0E0,0E0,0E0,0E0,0E0,0E0,0E0,0E0,0E0,0E0],"parents":[2147483647,0,0,1,1,2,2,3,3,4,4,7,7,8,8,9,9,10,10,11,11,12,12,13,13,14,14,16,16,17,17,19,19,20,20,21,21,23,23,25,25,26,26,27,27,28,28,29,29],"right_children":[2,4,6,8,10,-1,-1,12,14,16,18,20,22,24,26,-1,28,30,-1,32,34,36,-1,38,-1,40,42,44,46,48,-1,-1,-1,-1,-1,-1,-1,-1,-1,-1,-1,-1,-1,-1,-1,-1,-1,-1,-1],"split_conditions":[1.4774495E1,5.689426E0,-9.247078E-1,3.748202E0,4.7423363E-2,-1.5120697E-2,-5.8631398E-2,1.0820209E1,-8.170016E-1,-1.0279824E0,1.9561735E0,8.703447E0,2.84235E-1,7.9566014E-1,9.449556E0,-3.887371E-2,3.4631377E-1,2.2597935E1,-8.406902E-3,8.2929325E0,-8.198912E-1,1.2266961E0,2.616668E-3,-1.4755085E0,-4.9063426E-2,6.9038606E-1,6.038344E-1,-6.2668395E-1,-4.2770928E-1,1.7492855E1,3.6350011E-3,-5.997869E-4,-3.5474833E-2,-2.9301798E-2,3.9436407E-2,-5.8773108E-2,-3.0161738E-3,3.9903607E-2,-7.616067E-3,3.7736118E-2,1.4505413E-2,-3.2794E-2,-1.0541439E-3,9.071218E-3,4.2050738E-2,-6.057316E-3,1.0153171E-2,5.104216E-2,8.699012E-3],"split_indices":[556,497,0,1481,20,0,0,462,10,5,2,186,1,0,358,0,18,27,0,301,0,5,0,1,0,21,20,1,2,73,0,0,0,0,0,0,0,0,0,0,0,0,0,0,0,0,0,0,0],"split_type":[0,0,0,0,0,0,0,0,0,0,0,0,0,0,0,0,0,0,0,0,0,0,0,0,0,0,0,0,0,0,0,0,0,0,0,0,0,0,0,0,0,0,0,0,0,0,0,0,0],"sum_hessian":[1.232E3,1.228E3,4E0,1.19E3,3.8E1,1E0,3E0,1.109E3,8.1E1,2.5E1,1.3E1,1.101E3,8E0,2.6E1,5.5E1,1E0,2.4E1,1.1E1,2E0,1.09E3,1.1E1,7E0,1E0,2.3E1,3E0,5E1,5E0,1.2E1,1.2E1,1E1,1E0,1.079E3,1.1E1,1E0,1E1,6E0,1E0,2E0,2.1E1,2.4E1,2.6E1,3E0,2E0,8E0,4E0,7E0,5E0,9E0,1E0],"tree_param":{"num_deleted":"0","num_feature":"2072","num_nodes":"49","size_leaf_vector":"1"}},{"base_weights":[-7.9361815E-3,-1.5900021E-2,6.397876E-1,-2.2924162E-2,6.374876E-1,8.070887E-1,-2.9844618E-1,-3.0211676E-2,5.5820435E-1,7.862774E-1,-2.8699756E-2,2.5763264E-1,1.0226655E0,-2.4129177E-2,1.7457128E-3,-3.4346618E-2,9.591194E-1,6.5538424E-1,-4.897658E-2,4.1046777E-1,9.960746E-1,1.862741E-2,-5.0507425E-3,1.1176311E0,6.573522E-3,-4.148756E-2,4.60399E-1,5.2638303E-2,1.4613318E-2,7.4645185E-1,1.0300827E-1,-9.315885E-3,5.642641E-3,-1.8594504E-3,5.0743693E-1,5.3962E-2,1.2427068E-2,1.3105071E-2,6.0120326E-2,-2.3047132E-3,3.662213E-2,3.0190587E-2,-4.585513E-2,4.1209523E-2,-7.7335833E-4,8.2753896E-4,6.8980814E-3,2.8186668E-2,7.056284E-3],"categories":[],"categories_nodes":[],"categories_segments":[],"categories_sizes":[],"default_left":[0,0,0,0,0,0,0,0,0,0,0,0,0,0,0,0,0,0,0,0,0,0,0,0,0,0,0,0,0,0,0,0,0,0,0,0,0,0,0,0,0,0,0,0,0,0,0,0,0],"id":30,"left_children":[1,3,5,7,9,11,13,15,17,19,-1,21,23,-1,-1,25,27,29,31,33,35,-1,-1,37,-1,39,41,-1,-1,43,45,-1,-1,-1,47,-1,-1,-1,-1,-1,-1,-1,-1,-1,-1,-1,-1,-1,-1],"loss_changes":[6.370441E0,5.609199E0,2.5953846E0,5.1284876E0,2.7946515E0,1.2763777E0,2.0100135E-1,4.9132957E0,9.171848E-1,5.3726864E-1,0E0,2.4370378E-1,6.147604E-1,0E0,0E0,4.21978E0,4.5547485E-3,5.7705545E-1,8.770396E-2,2.7932453E-1,1.6694593E-1,0E0,0E0,2.6507092E-1,0E0,4.2158194E0,3.9121296E0,0E0,0E0,6.6428375E-1,6.7825653E-3,0E0,0E0,0E0,2.3552775E-2,0E0,0E0,0E0,0E0,0E0,0E0,0E0,0E0,0E0,0E0,0E0,0E0,0E0,0E0],"parents":[2147483647,0,0,1,1,2,2,3,3,4,4,5,5,6,6,7,7,8,8,9,9,11,11,12,12,15,15,16,16,17,17,18,18,19,19,20,20,23,23,25,25,26,26,29,29,30,30,34,34],"right_children":[2,4,6,8,10,12,14,16,18,20,-1,22,24,-1,-1,26,28,30,32,34,36,-1,-1,38,-1,40,42,-1,-1,44,46,-1,-1,-1,48,-1,-1,-1,-1,-1,-1,-1,-1,-1,-1,-1,-1,-1,-1],"split_conditions":[8.703447E0,1.0820209E1,4.5747757E0,9.449556E0,-1.3992725E-1,-4.2624423E-1,2.4647771E-1,1.3815752E1,6.0364747E0,-4.9729905E-1,-2.8699756E-2,-1.1977353E-2,1.2892629E0,-2.4129177E-2,1.7457128E-3,8.490891E0,7.5403586E-2,5.0921335E0,-2.8378022E-1,-2.1913848E0,-6.14935E-1,1.862741E-2,-5.0507425E-3,-7.13867E-1,6.573522E-3,1.3815752E1,1.126573E1,5.2638303E-2,1.4613318E-2,4.833744E0,-5.319835E-1,-9.315885E-3,5.642641E-3,-1.8594504E-3,-7.340132E-1,5.3962E-2,1.2427068E-2,1.3105071E-2,6.0120326E-2,-2.3047132E-3,3.662213E-2,3.0190587E-2,-4.585513E-2,4.1209523E-2,-7.7335833E-4,8.2753896E-4,6.8980814E-3,2.8186668E-2,7.056284E-3],"split_indices":[518,218,1452,131,1,15,0,1701,479,0,0,2,10,0,0,353,1,1373,0,1,1,0,0,2,0,1466,160,0,0,998,0,0,0,0,0,0,0,0,0,0,0,0,0,0,0,0,0,0,0],"split_type":[0,0,0,0,0,0,0,0,0,0,0,0,0,0,0,0,0,0,0,0,0,0,0,0,0,0,0,0,0,0,0,0,0,0,0,0,0,0,0,0,0,0,0,0,0,0,0,0,0],"sum_hessian":[1.232E3,1.218E3,1.4E1,1.206E3,1.2E1,1.2E1,2E0,1.192E3,1.4E1,1.1E1,1E0,4E0,8E0,1E0,1E0,1.188E3,4E0,1.2E1,2E0,5E0,6E0,3E0,1E0,7E0,1E0,1.172E3,1.6E1,3E0,1E0,1E1,2E0,1E0,1E0,1E0,4E0,5E0,1E0,1E0,6E0,1.166E3,6E0,1.5E1,1E0,9E0,1E0,1E0,1E0,3E0,1E0],"tree_param":{"num_deleted":"0","num_feature":"2072","num_nodes":"49","size_leaf_vector":"1"}},{"base_weights":[-1.6906114E-2,-2.2524629E-2,6.154368E-1,-3.151181E-2,3.6601257E-1,1.0269057E0,-8.370705E-2,-2.6490266E-2,-1.03308E0,1.0201515E0,9.938762E-2,2.071592E-1,6.566862E-2,-2.3520231E-1,1.3056851E-2,-3.4664735E-2,4.1390595E-1,-6.400126E-2,-1.7972978E-2,1.1073962E0,1.0235953E-2,3.1306425E-1,-2.2029945E-1,2.6295186E-4,1.5273988E-2,-3.8565954E-3,-1.7735338E-2,5.3363895E-1,-4.1441116E-2,5.933149E-1,-5.417632E-1,1.6350567E-2,5.9147924E-2,4.5769778E-1,-1.6080674E-2,-4.0827793E-1,1.4587506E-2,6.809496E-2,9.19704E-3,-2.3831662E-3,2.8122758E-2,4.629308E-2,1.0165274E-3,1.8950701E-3,-3.7380926E-2,3.0883024E-2,1.1673988E-3,-2.4660818E-2,2.5338174E-3],"categories":[],"categories_nodes":[],"categories_segments":[],"categories_sizes":[],"default_left":[0,0,0,0,0,0,0,0,0,0,0,0,0,0,0,0,0,0,0,0,0,0,0,0,0,0,0,0,0,0,0,0,0,0,0,0,0,0,0,0,0,0,0,0,0,0,0,0,0],"id":31,"left_children":[1,3,5,7,9,11,13,15,17,19,21,23,-1,25,-1,27,29,-1,-1,31,-1,33,35,-1,-1,-1,-1,37,39,41,43,-1,-1,45,-1,47,-1,-1,-1,-1,-1,-1,-1,-1,-1,-1,-1,-1,-1],"loss_changes":[4.4371333E0,4.323974E0,3.2503943E0,6.048174E0,4.782082E0,1.3717332E0,3.2263124E-1,4.3451557E0,5.379667E-1,3.4243202E-1,1.5034707E0,5.7946295E-2,0E0,4.8201233E-2,0E0,4.574045E0,4.09346E0,0E0,0E0,2.5933266E-2,0E0,1.3405454E0,9.854038E-1,0E0,0E0,0E0,0E0,3.8044662E0,4.419405E0,3.6015124E0,5.056441E-1,0E0,0E0,7.498565E-1,0E0,2.9787433E-1,0E0,0E0,0E0,0E0,0E0,0E0,0E0,0E0,0E0,0E0,0E0,0E0,0E0],"parents":[2147483647,0,0,1,1,2,2,3,3,4,4,5,5,6,6,7,7,8,8,9,9,10,10,11,11,13,13,15,15,16,16,19,19,21,21,22,22,27,27,28,28,29,29,30,30,33,33,35,35],"right_children":[2,4,6,8,10,12,14,16,18,20,22,24,-1,26,-1,28,30,-1,-1,32,-1,34,36,-1,-1,-1,-1,38,40,42,44,-1,-1,46,-1,48,-1,-1,-1,-1,-1,-1,-1,-1,-1,-1,-1,-1,-1],"split_conditions":[1.0820209E1,6.853375E0,1.5851138E0,1.4774495E1,-1.0434585E0,-6.895257E-1,1.0820209E1,6.746492E0,3.9778098E-1,2.5459376E-1,3.14231E-1,-7.8197914E-1,6.566862E-2,2.765617E-1,1.3056851E-2,-2.3238118E0,3.027468E0,-6.400126E-2,-1.7972978E-2,-5.456641E-1,1.0235953E-2,7.6182976E0,7.1844673E-1,2.6295186E-4,1.5273988E-2,-3.8565954E-3,-1.7735338E-2,4.5664993E-1,1.0820209E1,1.1940967E-1,-2.6948683E0,1.6350567E-2,5.9147924E-2,4.443337E0,-1.6080674E-2,6.484565E-1,1.4587506E-2,6.809496E-2,9.19704E-3,-2.3831662E-3,2.8122758E-2,4.629308E-2,1.0165274E-3,1.8950701E-3,-3.7380926E-2,3.0883024E-2,1.1673988E-3,-2.4660818E-2,2.5338174E-3],"split_indices":[304,1996,413,49,22,7,59,1192,15,3,17,0,0,15,0,17,1178,0,0,0,0,970,21,0,0,0,0,0,119,1,15,0,0,1262,0,15,0,0,0,0,0,0,0,0,0,0,0,0,0],"split_type":[0,0,0,0,0,0,0,0,0,0,0,0,0,0,0,0,0,0,0,0,0,0,0,0,0,0,0,0,0,0,0,0,0,0,0,0,0,0,0,0,0,0,0,0,0,0,0,0,0],"sum_hessian":[1.244E3,1.234E3,1E1,1.207E3,2.7E1,6E0,4E0,1.202E3,5E0,7E0,2E1,2E0,4E0,3E0,1E0,1.181E3,2.1E1,3E0,2E0,6E0,1E0,1.2E1,8E0,1E0,1E0,2E0,1E0,1.3E1,1.168E3,1.8E1,3E0,1E0,5E0,1E1,2E0,6E0,2E0,3E0,1E1,1.157E3,1.1E1,1.1E1,7E0,1E0,2E0,7E0,3E0,5E0,1E0],"tree_param":{"num_deleted":"0","num_feature":"2072","num_nodes":"49","size_leaf_vector":"1"}},{"base_weights":[2.9111118E-3,-1.2797896E-2,2.743756E-1,-8.090405E-3,-4.576439E-2,-1.06659226E-1,5.1860887E-1,-1.1798338E-2,5.299815E-2,8.293936E-2,-6.0879298E-2,6.889889E-1,4.9441297E-2,-1.59385E-2,4.697432E-2,-1.9922438E-1,6.721699E-1,-7.956902E-2,8.4588325E-1,-1.686687E-2,2.8499782E-1,-2.371447E-2,4.7267312E-1,3.643391E-1,-3.460122E-1,5.1524676E-2,1.2553855E-2,3.3692837E-1,-3.720498E-1,2.5604048E-1,9.460419E-1,4.0538993E-1,-1.3943672E-2,-8.176039E-3,2.9153033E-4,3.1272408E-2,-1.0920084E-2,2.5970547E-2,-2.5219084E-3,-2.4158377E-2,5.8833957E-3,1.6703844E-3,2.3599243E-2,-2.508603E-2,4.240632E-4,-2.3373484E-3,1.7171204E-2,5.1516958E-2,4.8405966E-3,6.1300676E-3,2.4699254E-2],"categories":[],"categories_nodes":[],"categories_segments":[],"categories_sizes":[],"default_left":[0,0,0,0,0,0,0,0,0,0,0,0,0,0,0,0,0,0,0,0,0,0,0,0,0,0,0,0,0,0,0,0,0,0,0,0,0,0,0,0,0,0,0,0,0,0,0,0,0,0,0],"id":32,"left_children":[1,3,5,7,-1,9,11,13,-1,15,-1,17,19,21,-1,23,25,27,29,-1,31,33,35,37,39,-1,-1,41,43,45,47,49,-1,-1,-1,-1,-1,-1,-1,-1,-1,-1,-1,-1,-1,-1,-1,-1,-1,-1,-1],"loss_changes":[5.223183E0,4.9123154E0,6.2904277E0,4.5786977E0,0E0,5.787999E0,3.2433434E0,4.5442176E0,0E0,4.1241407E0,0E0,3.6847773E0,1.1894393E0,4.3653555E0,0E0,1.5323784E0,9.483664E-1,8.562591E-1,1.2347221E0,0E0,6.561377E-1,4.6643877E0,2.0370212E0,2.834792E-1,9.471998E-1,0E0,0E0,1.07209355E-1,2.016303E-1,1.4834732E-1,1.4035931E0,1.1481273E-1,0E0,0E0,0E0,0E0,0E0,0E0,0E0,0E0,0E0,0E0,0E0,0E0,0E0,0E0,0E0,0E0,0E0,0E0,0E0],"parents":[2147483647,0,0,1,1,2,2,3,3,5,5,6,6,7,7,9,9,11,11,12,12,13,13,15,15,16,16,17,17,18,18,20,20,21,21,22,22,23,23,24,24,27,27,28,28,29,29,30,30,31,31],"right_children":[2,4,6,8,-1,10,12,14,-1,16,-1,18,20,22,-1,24,26,28,30,-1,32,34,36,38,40,-1,-1,42,44,46,48,50,-1,-1,-1,-1,-1,-1,-1,-1,-1,-1,-1,-1,-1,-1,-1,-1,-1,-1,-1],"split_conditions":[1.1645396E0,1.302135E1,-6.81729E-1,1.9563997E1,-4.576439E-2,2.9731705E0,2.0897686E0,1.7492855E1,5.299815E-2,1.6988455E0,-6.0879298E-2,-6.4583224E-1,-1.1104301E0,8.107967E0,4.697432E-2,-5.5933725E-2,7.8804976E-1,-5.966896E-1,-7.0588535E-1,-1.686687E-2,7.0828433E0,-9.0676624E-1,1.6266779E0,-1.2025056E0,9.09299E-1,5.1524676E-2,1.2553855E-2,-8.8982725E-1,8.938807E-1,-1.317229E0,4.321977E0,2.84235E-1,-1.3943672E-2,-8.176039E-3,2.9153033E-4,3.1272408E-2,-1.0920084E-2,2.5970547E-2,-2.5219084E-3,-2.4158377E-2,5.8833957E-3,1.6703844E-3,2.3599243E-2,-2.508603E-2,4.240632E-4,-2.3373484E-3,1.7171204E-2,5.1516958E-2,4.8405966E-3,6.1300676E-3,2.4699254E-2],"split_indices":[20,1131,1,463,0,1041,1298,187,0,402,0,16,21,939,0,2,0,0,5,0,437,10,1504,0,7,0,0,0,1,0,1090,1,0,0,0,0,0,0,0,0,0,0,0,0,0,0,0,0,0,0,0],"split_type":[0,0,0,0,0,0,0,0,0,0,0,0,0,0,0,0,0,0,0,0,0,0,0,0,0,0,0,0,0,0,0,0,0,0,0,0,0,0,0,0,0,0,0,0,0,0,0,0,0,0,0],"sum_hessian":[1.223E3,1.157E3,6.6E1,1.152E3,5E0,2.6E1,4E1,1.149E3,3E0,2.3E1,3E0,2.9E1,1.1E1,1.145E3,4E0,1.6E1,7E0,5E0,2.4E1,4E0,7E0,1.128E3,1.7E1,3E0,1.3E1,3E0,4E0,2E0,3E0,4E0,2E1,6E0,1E0,1.96E2,9.32E2,1.4E1,3E0,2E0,1E0,1E1,3E0,1E0,